3191 100
the -0.6592775 0.36458486 0.39050406 0.74294466 -0.1715975 -0.5257168 0.050332215 0.7603984 -0.8710086 -0.23627412 -0.29061955 -0.39531487 -0.83049774 0.57682824 0.772474 -0.2613708 -0.09898132 -0.25081792 -0.30818105 -0.87893546 0.43791026 0.13649349 0.38483202 -0.45293704 0.03499899 0.38966465 -0.61899704 0.36144748 -0.78897715 0.15432142 -0.06821673 -0.49893472 -0.07345396 -0.47237924 -0.21902649 -0.08394558 0.3383452 -0.057336926 -0.31634456 -0.15235932 0.2698095 -0.71148574 -0.22669975 0.48068836 0.12863177 -0.5772703 -0.102340534 0.19993384 0.97261596 0.13982417 -0.11482693 -0.32836697 0.39180216 -0.2652344 -0.3536415 0.4303291 0.5762138 0.15740186 -0.53848356 -0.034866996 0.36098874 0.5117021 -0.20925896 -0.00039604993 0.0051416834 0.38424015 -0.055012662 0.7135366 -0.3278556 0.21332176 -0.19241038 0.07720853 0.38019282 -0.6640733 0.9984835 0.17250812 0.33378556 0.4418385 -0.42889398 -0.26236966 -0.29815495 -0.10704037 -0.14822899 0.8263753 -0.0024583037 -0.14748265 -0.41199666 0.53398246 0.24531586 0.42725968 0.24143106 -0.04849727 0.026874507 -0.19753596 1.0009263 0.59847504 0.11092647 -0.1871392 0.19351956 0.1034507
and -0.36264172 0.32832754 0.23587874 0.33426893 -0.14791223 -0.5800383 0.06999547 0.9636931 -0.5028591 -0.30039418 -0.2723809 -0.55149424 -0.2047499 0.40632108 0.36295953 -0.51559 -0.03490946 -0.3580722 -0.10079814 -0.6499785 0.41794294 0.034239646 0.29271412 -0.35073873 0.051337272 0.10966191 -0.46869043 0.06642914 -0.4098023 0.26674023 0.44511902 -0.4076824 -0.018227309 -0.56373763 -0.23524152 0.33089957 0.29458714 -0.20594843 -0.24284142 -0.5086109 0.07224914 -0.53452474 -0.25206167 0.22719131 0.42701718 -0.096724644 -0.22383511 -0.12496713 0.5637753 0.16173929 0.24328755 -0.25382477 0.27459824 -0.06993501 -0.35467693 0.45034608 0.45397902 0.157039 -0.63877255 0.062096726 0.16876788 0.21027225 0.01341087 -0.011641303 -0.3693874 0.64979553 0.13031024 0.5305333 -0.3265464 0.55305505 -0.39877135 0.057229575 0.47034872 -0.19132498 0.752132 0.11872085 -0.0997625 0.37452543 -0.4328174 -0.045490917 -0.28123266 -0.12036111 -0.4824629 0.7731854 -0.10941693 -0.23415622 -0.13568777 0.36865562 0.44749644 0.31667903 0.30501056 0.012729429 -0.12112869 -0.26052675 0.7709412 0.40414044 0.14677145 -0.2564623 0.05575539 -0.044182498
to -0.16270036 0.28132585 0.16729587 0.20286947 -0.120477654 -0.59115714 0.08725754 0.987112 -0.51892173 -0.2190515 -0.14343344 -0.7824666 0.33043346 0.45964244 0.15057217 -0.6012035 -0.10723437 -0.33292323 0.009084578 -0.6582552 0.46079582 0.08854427 0.42619684 -0.48972723 0.2234361 0.082929194 -0.29951724 -0.10642761 -0.26357296 0.07770891 0.85845923 -0.5336455 0.17805521 -0.5098835 -0.2892664 0.40152788 0.48196018 -0.1633709 -0.17690082 -0.9007916 -0.31200594 -0.46760875 -0.35498825 0.16772904 0.55364734 0.15214989 -0.42344427 -0.30365956 0.4471823 0.07472088 0.13615942 -0.14297017 0.0032886108 0.035164516 -0.34172088 0.48865145 0.47388554 0.03129412 -0.77806294 -0.009648823 0.21795772 -0.01012525 0.18695748 -0.0053757243 -0.87900555 0.74931186 -0.20902032 0.35561347 -0.31458122 0.8447173 -0.5435872 0.21820319 0.5856891 0.118477166 0.5991599 0.004100535 -0.13157539 0.06775897 -0.6658934 0.17494112 0.05689764 -0.2562031 -0.6846766 0.7664519 -0.27371812 -0.42588657 -0.26971892 0.30368167 0.5316028 0.26549873 0.09386222 0.09653138 -0.13446657 -0.20246531 0.69710666 0.5715366 0.14242433 -0.37530276 0.08058298 -0.24698387
of -0.72420317 0.56122255 0.3823134 0.7670646 -0.14713939 -0.535207 -0.15710363 0.8258031 -0.6572398 -0.4007482 -0.25889623 -0.4146085 -0.7700227 0.5345816 0.948691 -0.34843647 -0.09054246 -0.33783174 -0.27213624 -0.69293135 0.32207084 0.17233337 0.41166762 -0.29940394 -0.13821532 0.3129317 -0.6273951 0.49963355 -0.7461709 0.31533447 -0.1405955 -0.6230469 -0.2605821 -0.46244478 -0.35992345 0.11640338 0.26647022 -0.119221345 -0.49772274 -0.03656816 0.41683128 -0.69741994 -0.08764519 0.499873 0.21464987 -0.56454 0.02760519 -0.018103192 0.9043546 0.21081081 -0.0043283 -0.45263192 0.36476043 -0.4879238 -0.439067 0.44825262 0.6225104 0.31969842 -0.4565087 -0.07736886 0.45789874 0.621777 -0.14020434 0.05512585 -0.015820734 0.42922115 0.041286282 0.8655137 -0.42682824 0.15425527 -0.13059789 -0.16250391 0.49843284 -0.59895617 0.9511784 0.1686121 0.12986837 0.48762318 -0.48740175 -0.21544284 -0.51978236 -0.073786065 -0.18330745 0.996847 0.072215974 -0.1652518 -0.35627753 0.5384258 0.4188696 0.38738894 0.19257286 -0.08365848 -0.04056221 -0.3281142 1.128019 0.60552067 0.13322762 -0.18337154 0.1528968 -0.036724165
a -0.5465214 0.40992817 0.117825225 0.22257805 -0.32254872 -0.6400032 0.16220401 1.0444986 -0.63318896 -0.25287217 -0.5362188 -0.48346028 -0.51512355 0.33496097 0.31979203 -0.41677988 -0.0075775804 -0.37938902 -0.03743394 -0.9511454 0.16359912 -0.025245305 0.33124548 -0.2323152 -0.024798235 0.12305934 -0.7378755 0.0067735794 -0.61619204 0.16513099 0.4205774 -0.18856767 -0.04406239 -0.43217307 -0.19756104 0.26295757 0.23278594 -0.2508721 -0.23022881 -0.4707263 0.07979392 -0.5272724 -0.2574354 0.2033743 0.46196717 -0.32672396 0.00979447 -0.112872496 0.6754633 0.13524714 0.24726751 -0.24640316 0.4602117 -0.0845803 -0.3931378 0.18818662 0.30860472 -0.056160714 -0.37083054 -0.05079419 0.2364187 0.13329567 0.21290211 -0.010881052 -0.2520661 0.5328933 0.20171781 0.46030998 -0.35163242 0.39319584 -0.22769974 0.067883454 0.36076567 -0.18625072 0.7944232 0.28357667 -0.00081807387 0.39388487 -0.26855916 -0.03560963 -0.26024473 -0.1061131 -0.31241876 0.6855901 -0.14385624 -0.33610052 -0.1441183 0.44914275 0.42794114 0.40738785 0.29162425 0.07573242 0.037356276 -0.34854248 0.9819349 0.11761639 0.25397998 -0.10946092 0.22539502 0.07555469
that -0.19362293 0.2916215 0.06702493 0.20042276 -0.26499093 -0.5646428 0.23017651 0.9763838 -0.57783705 -0.33226517 -0.31376842 -0.59444696 0.027058009 0.41395622 0.05697897 -0.41781446 0.04058122 -0.350882 -0.13689281 -0.87716496 0.25288257 -0.06789295 0.31017837 -0.24427953 0.0592355 0.1243218 -0.54375476 -0.13041149 -0.25185892 0.1457246 0.67689383 -0.18081121 0.1094377 -0.61087805 -0.18602122 0.46002793 0.38733137 -0.23632583 -0.17672631 -0.8032652 -0.14233077 -0.3679374 -0.14909591 0.09973619 0.59507036 -0.123306915 -0.31005028 -0.16113105 0.4757929 0.18164325 0.1578877 -0.10902439 0.26082 0.057885043 -0.34321594 0.23535521 0.36186883 0.07430749 -0.6237101 0.064678036 0.19103654 -0.052043013 0.42125237 0.05334148 -0.6517652 0.55480236 -0.046965115 0.44763875 -0.39781618 0.6541945 -0.34861046 0.19590025 0.40847352 0.08790689 0.6978824 0.07615921 -0.12904695 0.15741569 -0.3003966 0.10235848 0.024621658 -0.22239953 -0.6128945 0.6104891 -0.23206414 -0.45406586 0.0024028805 0.41591614 0.41641816 0.34306228 0.16349971 0.13804016 -0.13544455 -0.18494174 0.78660876 0.18160358 0.01547725 -0.3354297 0.23441027 -0.06620692
i 0.01787991 0.20848128 -0.0492665 -0.17146702 -0.19226694 -0.7652704 0.53115267 1.2077662 -0.64902127 -0.34627026 -0.28350693 -0.55519944 0.37721756 0.4716606 -0.2440807 -0.53081256 0.34508172 -0.2911886 0.011312896 -1.3275644 0.3606392 -0.0032605892 0.49491236 -0.35802007 0.08654821 -0.18684085 -0.49400753 -0.61453825 -0.23154138 0.113094665 1.0844791 0.055230856 0.22144702 -0.56658703 -0.27361184 0.9294725 0.2799757 -0.5258723 -0.31299144 -1.0752126 -0.082587816 -0.36902627 -0.002038017 -0.22678888 0.9640471 0.29940015 -0.36848754 -0.52813953 0.24205911 0.24643819 0.29173186 -0.27212864 0.02896617 0.2667926 -0.45895806 -0.15775937 0.0636981 -0.21690975 -0.70084417 0.09440229 0.050240587 -0.34332752 0.57839894 -0.1452712 -0.7829691 0.7741476 -0.14596198 -0.01448813 -0.5574842 0.42193532 -0.5457282 0.2892466 0.3430765 0.48759976 0.8811399 -0.054843947 -0.178384 0.21608157 -0.35426563 0.36766502 0.23707749 -0.28874436 -1.0458913 0.67745024 -0.5401314 -0.50622153 0.23090757 0.14384848 0.4957749 0.4754085 0.25301805 0.30504054 -0.09249672 -0.067048624 0.72801095 -0.24654375 0.42379087 -0.5159276 0.38323414 -0.1477432
in -0.5451308 0.43477598 0.36149162 0.589993 -0.12017925 -0.5397872 -0.06722406 0.8610113 -0.60899156 -0.34850806 -0.23241296 -0.44092727 -0.56529707 0.49051487 0.72010237 -0.4047917 -0.07948983 -0.3013053 -0.20090768 -0.7455719 0.35175157 0.15979756 0.33744362 -0.3661693 -0.08171785 0.22167864 -0.53306484 0.30893165 -0.6227402 0.30262005 0.02829065 -0.55655646 -0.1639513 -0.4734452 -0.31930667 0.16333762 0.23084848 -0.1347039 -0.40745288 -0.20316975 0.30290848 -0.6769986 -0.15626214 0.39234427 0.29151085 -0.42415887 -0.028163232 -0.07461015 0.7762599 0.19937004 0.053951286 -0.4170634 0.3183639 -0.32268927 -0.35643232 0.41603512 0.5123621 0.20774466 -0.50438946 -0.026886871 0.3461077 0.43123809 -0.10943389 0.045511752 -0.13857442 0.5658511 0.045544513 0.7170615 -0.41452566 0.26246518 -0.20846681 -0.07168014 0.5028147 -0.44887862 0.8512806 0.14692883 0.08679545 0.41186133 -0.4688391 -0.14154312 -0.40273568 -0.113455206 -0.32862705 0.90508175 0.019874252 -0.16540685 -0.32565427 0.43353015 0.4411793 0.41008168 0.29179144 -0.06974462 -0.03395109 -0.2364579 0.98158216 0.5192414 0.15740855 -0.20584886 0.11958389 -0.050715923
we -0.056666695 0.17374915 0.18010542 0.095401786 -0.1720279 -0.64189893 0.3325933 0.99872047 -0.7155635 -0.33149916 0.004034751 -0.9113147 0.56682706 0.5053866 -0.09042234 -0.32377973 -0.038980782 -0.32218558 -0.09672644 -1.0505412 0.56373125 0.13441966 0.6418376 -0.63632977 0.2395237 0.32251424 -0.28960165 -0.4293398 -0.09100034 -0.24517266 1.0890963 -0.40235442 0.44703975 -0.49290022 -0.10759452 0.55143934 0.6109633 -0.14672093 -0.154076 -1.1854105 -0.45284083 -0.32114115 -0.19887352 0.04637562 0.57981116 0.013159845 -0.61332965 -0.28376395 0.3316379 0.12876567 -0.111021064 -0.072032355 -0.04504623 0.259722 -0.14198054 0.30368698 0.3592313 0.054976426 -0.6457521 -0.014198261 0.10172832 -0.3581759 0.68680847 0.07403923 -1.2614863 0.6817179 -0.7499319 0.18957928 -0.35829508 0.9332283 -0.54238415 0.4817304 0.56456363 0.54993105 0.6972329 -0.19524826 -0.11887219 -0.33056343 -0.5651388 0.34553507 0.4180593 -0.35001212 -0.79347765 0.6220629 -0.5443238 -0.6171822 -0.19187908 0.2570141 0.31096902 0.33186758 -0.028453207 0.2519694 -0.11807083 0.06230122 0.59790176 0.47148088 0.015316904 -0.56489605 0.34857488 -0.33434096
it -0.20926324 0.28283983 -0.16361505 -0.00088947965 -0.33210492 -0.6340454 0.35002568 1.1764511 -0.5090118 -0.35814178 -0.46410048 -0.5808981 -0.035540715 0.22193252 -0.2103937 -0.45040497 0.12361619 -0.3523698 -0.05454183 -1.0506124 0.00034700098 -0.19471826 0.22270478 -0.20406489 0.043379974 0.0028338784 -0.76002747 -0.29708776 -0.30316165 0.06025386 0.79088795 0.014918402 0.16725445 -0.5547622 -0.1945136 0.56945086 0.27536944 -0.29056937 -0.115759835 -0.80993885 -0.15201516 -0.24839419 -0.09950853 -0.065581776 0.72960174 -0.08713174 -0.13901877 -0.24898744 0.41684633 0.26045275 0.34991392 -0.05466114 0.39025116 0.17793517 -0.38615784 -0.042105015 0.29704198 -0.034960806 -0.37764806 0.10564199 0.12988585 -0.28262958 0.73497367 0.016630556 -0.6188172 0.5672225 0.07359613 0.20415165 -0.4246643 0.53139675 -0.32917705 0.175765 0.30702648 0.23800321 0.7249602 0.05560768 -0.10663617 0.1690255 -0.078253336 0.17076612 0.025902638 -0.1613713 -0.64168745 0.43426198 -0.31762847 -0.5896957 0.12387337 0.3416983 0.50237435 0.39899135 0.11185008 0.21115236 0.023739388 -0.18110797 0.96409625 -0.24422818 0.026031392 -0.17933413 0.2968192 -0.050806515
you 0.122513205 0.10432272 0.15798625 -0.17524914 -0.38911805 -0.8418937 0.36564624 1.1279019 -0.71624756 -0.5256327 -0.005107293 -0.95774716 0.8530303 0.40337577 -0.28896853 -0.3691689 0.03589714 -0.555103 0.087990224 -1.1149933 0.5491297 0.07868402 0.7708298 -0.6692835 0.17202248 0.27788994 -0.30882937 -0.56767374 0.06688811 -0.22319174 1.251027 -0.32267785 0.68565893 -0.48870227 -0.04280848 0.84695786 0.6703081 -0.32337886 -0.23233378 -1.2964194 -0.60877055 -0.26834583 -0.2578497 0.061799318 0.6961659 0.111193895 -0.80804855 -0.44652897 0.13913861 0.17301196 -0.05681083 0.038587943 -0.07477478 0.37316588 -0.11796069 0.28903398 0.2791771 0.002909307 -0.75587 0.115898505 -0.09810178 -0.48789555 0.75530064 0.0042132875 -1.5690479 0.8522371 -0.80914086 0.0044609816 -0.27397594 1.0242689 -0.67337346 0.6274895 0.5774163 0.86452997 0.7106332 -0.096697986 -0.2554745 -0.36398077 -0.60820657 0.50730616 0.431048 -0.17745304 -0.88755995 0.6843098 -0.7470931 -0.6458854 -0.055995636 0.4181002 0.5199448 0.32585272 -0.030225975 0.34369174 -0.22818245 -0.017734922 0.43470693 0.3743512 0.19470465 -0.6913023 0.40517774 -0.46314487
is -0.29064283 0.3413808 0.20906794 0.14051239 -0.13502625 -0.67862827 0.0998644 1.0405614 -0.4067823 -0.4842074 -0.25780722 -0.44155166 -0.2831761 0.1731013 0.34600663 -0.5953568 0.028012956 -0.34866697 -0.096194774 -0.83074135 0.12521106 0.013543483 0.33457214 -0.3434185 -0.1580005 0.045454077 -0.66003025 0.053023696 -0.35186425 0.31425318 0.29066423 -0.380004 -0.051004656 -0.52205443 -0.2816213 0.375392 0.045883916 -0.3292146 -0.24852583 -0.49286246 0.122813664 -0.41936186 -0.015269186 0.19935422 0.43567532 -0.24469355 -0.043793425 -0.33042642 0.45983595 0.2752213 0.26825023 -0.2943801 0.4373428 -0.1070506 -0.3698 0.16021356 0.35719335 0.20875141 -0.32800254 0.13365056 0.14653327 0.0197845 0.42829975 0.07079792 -0.2884986 0.7619736 0.29241452 0.51709825 -0.55425954 0.38035566 -0.30095056 0.07364234 0.4021875 -0.0073246667 0.72467065 0.18844947 -0.13297682 0.33877334 -0.33134386 -0.03126859 -0.38751963 0.035308503 -0.4804102 0.8052191 -0.09197432 -0.25482398 0.031128354 0.2070589 0.48075858 0.44635746 0.3015099 -0.043586355 0.003487252 -0.3199415 0.9641957 0.10993781 0.112204395 -0.23651968 0.13286947 -0.070467055
s -0.16826653 0.23420127 0.13081615 -0.2705548 -0.12359584 -0.6933577 0.15516697 1.3132203 -0.08925091 -0.4667987 -0.5045193 -0.5401637 -0.16507252 0.054606155 0.03353712 -0.7552955 0.09582204 -0.31126025 0.15468724 -0.9128434 0.07782063 -0.12780833 0.15717196 -0.17353396 -0.15725143 -0.07074834 -0.76629275 -0.112728 -0.24769738 0.46964726 0.47821814 -0.143643 -0.041277196 -0.6730795 -0.34338206 0.4095544 -0.0922869 -0.44564492 -0.1255007 -0.6592393 -0.035341933 -0.26658282 -0.10491632 0.016504424 0.5610827 -0.15584803 0.037993405 -0.5294033 0.31455934 0.27145818 0.5263241 -0.24730475 0.5234934 -0.013871241 -0.30428308 -0.034169096 0.21561842 0.07922852 -0.17460248 0.31922203 -0.04804332 -0.30049604 0.6722705 0.09725443 -0.40942574 0.8938388 0.61317796 0.36706468 -0.6320862 0.5428254 -0.29550916 0.021023266 0.42694163 0.10233614 0.64399225 0.24197334 -0.16459233 0.2982774 -0.35404333 0.041390505 -0.48798642 0.11045279 -0.5433661 0.8105923 -0.11334368 -0.37176114 0.26312613 0.13906686 0.5130512 0.44734243 0.45527047 0.017708352 0.11579607 -0.43876904 1.0199943 -0.05819732 0.10403993 -0.14735103 0.17444032 0.08588504
this -0.33150536 0.31495598 0.08535251 0.15736794 -0.25164244 -0.6343436 0.21730573 0.9924813 -0.63040966 -0.32210392 -0.356414 -0.4430638 -0.20949323 0.31321844 0.18994053 -0.43647406 0.11182456 -0.3277476 -0.13004006 -0.9439646 0.2808991 0.016836364 0.3736817 -0.3066254 0.02790054 0.089726076 -0.60358375 -0.08695902 -0.38523173 0.22385535 0.58430254 -0.21818861 0.13231555 -0.561824 -0.18653886 0.40591106 0.25546852 -0.2816491 -0.2132811 -0.6404953 0.007894095 -0.44074494 -0.13008605 0.124344856 0.52269924 -0.1313052 -0.20938009 -0.19013815 0.5077356 0.19442908 0.2274852 -0.23375241 0.2847004 -0.0042553665 -0.3426756 0.1901665 0.32676497 0.043449078 -0.5456673 0.08268888 0.16728877 -0.006217733 0.30557245 0.020632438 -0.37077832 0.6317347 0.12039042 0.40097603 -0.40398002 0.4663983 -0.3683284 0.1293716 0.33599773 0.0065637985 0.7881675 0.13321286 -0.08807533 0.3465378 -0.31506443 0.010737975 -0.1361717 -0.122615136 -0.53158134 0.73849 -0.24008866 -0.32112068 0.007292762 0.34555423 0.39819083 0.3799564 0.30533344 0.089179635 -0.015978424 -0.24574651 0.8278495 0.070125274 0.22112541 -0.26291165 0.1994811 -0.004881992
so 0.0018525688 0.19204201 0.0736706 -0.13006948 -0.22494316 -0.66547334 0.31337202 1.1334949 -0.38601333 -0.39818588 -0.24356909 -0.634581 0.30801523 0.16145633 -0.20257458 -0.61622345 0.114666834 -0.43780252 -0.012627676 -0.7248756 0.30892113 -0.065516226 0.29072845 -0.32177567 0.0495042 -0.023106514 -0.41675696 -0.26832274 -0.04664142 0.2106783 0.94169164 -0.1960227 0.25867167 -0.64302945 -0.15624616 0.64951855 0.3196899 -0.37740618 -0.09202225 -1.001 -0.23370495 -0.24120015 -0.16902663 -0.028184246 0.68626165 0.20978193 -0.449813 -0.33960417 0.17616183 0.192073 0.40798423 -0.06795482 0.24753447 0.18503354 -0.2916667 0.23378986 0.25119418 0.066981666 -0.6702021 0.17334177 -0.06622555 -0.27499858 0.5397096 0.0070521045 -0.7706308 0.83885825 0.15080763 0.31945175 -0.41010955 0.8027373 -0.5249234 0.2779192 0.4276798 0.35608304 0.6410813 0.091153234 -0.39631784 0.23225401 -0.33109155 0.17563842 -0.078088894 -0.089862615 -0.756122 0.6620966 -0.35991344 -0.4086872 0.24173678 0.26648542 0.4649166 0.27466372 0.32931986 0.1046941 -0.1498088 -0.22164734 0.5980617 0.034243695 0.15700041 -0.35201657 0.086723104 -0.1162015
for -0.4851755 0.40557152 0.2702177 0.4050022 -0.21959165 -0.61138994 0.026989093 0.98105437 -0.5507157 -0.35256004 -0.31836706 -0.5533259 -0.36463484 0.4141005 0.45846128 -0.49049142 -0.08802641 -0.38291565 -0.08830463 -0.79806226 0.30294043 0.101745166 0.31072113 -0.30840316 -0.05038106 0.111429565 -0.58934265 0.13894798 -0.5363721 0.21793735 0.26450002 -0.408849 -0.073441036 -0.45254353 -0.32290354 0.32473204 0.25759935 -0.24671912 -0.35057938 -0.36362335 0.17088416 -0.56351894 -0.20456597 0.29011935 0.42061597 -0.24003184 -0.08662287 -0.18649642 0.64313585 0.16629247 0.18243814 -0.3311973 0.33353013 -0.14028573 -0.3897573 0.32554314 0.468027 0.105016746 -0.48165968 0.03121213 0.24248277 0.26409608 0.07971259 -0.022585014 -0.3073074 0.56934935 0.08412503 0.5710777 -0.3784426 0.40125155 -0.2986874 0.0065508885 0.4746038 -0.29048073 0.86496264 0.19764793 -0.01159545 0.33008897 -0.44746256 -0.050985884 -0.31895885 -0.08782789 -0.41154745 0.84601223 -0.124713555 -0.24248675 -0.21028681 0.3799642 0.49944422 0.4138632 0.25080413 0.060366523 -0.078783244 -0.2895335 0.912789 0.3938372 0.19493221 -0.2004176 0.18460521 -0.05071092
they -0.03530381 0.117620036 0.20237228 0.13743475 -0.19647385 -0.6580025 0.18572088 0.95828015 -0.5831053 -0.34829423 -0.06300091 -0.88900936 0.5201088 0.63480395 -0.059911683 -0.29513076 -0.13490815 -0.37500232 -0.00053148635 -0.9391436 0.64282256 0.09938566 0.5383245 -0.4796782 0.27918696 0.32538474 -0.26012146 -0.30736265 -0.07804789 -0.1370565 0.9548895 -0.30014125 0.34902647 -0.6015154 -0.10191123 0.5921977 0.60439694 -0.20076157 -0.23092636 -1.1541998 -0.4886317 -0.37563127 -0.28661832 0.068409435 0.587932 -0.037294067 -0.6586367 -0.2927531 0.4163056 0.14886989 -0.11075012 -0.014586798 -0.023026733 0.20519583 -0.12940659 0.38268468 0.3300357 0.04951575 -0.78269243 0.051193632 0.15357842 -0.20458047 0.48179057 0.08917297 -1.2250092 0.6535631 -0.63644546 0.32682368 -0.2175334 1.0144014 -0.4486476 0.4385779 0.58635396 0.4292445 0.6865993 -0.1349039 -0.105250806 -0.25594187 -0.53501624 0.27348706 0.31528768 -0.3443747 -0.82204175 0.60988724 -0.45596206 -0.5290614 -0.18095292 0.36880296 0.36090007 0.27173886 0.006617167 0.19676517 -0.20857053 0.031225758 0.46215117 0.59668064 -0.09612894 -0.5691008 0.26323628 -0.24311374
was -0.3056372 0.34020206 0.17580101 -0.083273314 -0.0965479 -0.69172955 0.19667627 1.1739755 -0.30991045 -0.3967162 -0.49211994 -0.3788685 -0.26276273 0.1739255 0.30684236 -0.6718801 0.12238184 -0.32920018 0.038663276 -0.93722224 0.24520992 0.0028993862 0.13177496 -0.18015811 -0.18529536 -0.20877595 -0.62390333 -0.111343116 -0.42490867 0.48939666 0.35258576 -0.164779 -0.19489822 -0.6366773 -0.34404743 0.52542233 -0.04065606 -0.40198386 -0.23793589 -0.44646177 0.24278614 -0.46322578 -0.12302779 0.07181221 0.6090497 -0.07393823 0.035473794 -0.3568639 0.44249386 0.23698305 0.51018983 -0.32775548 0.43290654 -0.093388185 -0.39941195 0.017888688 0.20022584 -0.00725842 -0.38364986 0.2351813 0.055470183 0.017719245 0.19413765 -0.0773945 -0.12380034 0.78040457 0.5891931 0.45053977 -0.51565295 0.2997283 -0.29635245 -0.04635224 0.38091487 -0.072043166 0.75454557 0.3408534 -0.09372893 0.5203177 -0.35139093 -0.077099554 -0.44249123 0.070293754 -0.5484189 0.87367254 -0.043904066 -0.18339363 0.1631073 0.1935399 0.5586377 0.462289 0.57631904 0.06422184 0.06411149 -0.39136285 0.973667 0.007820277 0.30445194 -0.190138 0.16222605 0.05119625
are -0.18343042 0.16309437 0.28929693 0.2902351 -0.12781887 -0.65840286 0.0070238984 0.96982 -0.43152472 -0.37587875 -0.191109 -0.68375367 -0.091930516 0.43143943 0.30723402 -0.5300094 -0.12346529 -0.33874726 -0.063544154 -0.538973 0.4384628 -0.051283047 0.2516489 -0.33552235 0.0900242 0.28747675 -0.4593852 0.23434313 -0.20494647 0.24670346 0.54746693 -0.389867 0.0560364 -0.58000684 -0.174596 0.23772296 0.3233408 -0.17771603 -0.092920415 -0.7803147 -0.123441294 -0.43156886 -0.17746954 0.25355121 0.2807868 -0.21943171 -0.3797988 -0.1851734 0.54870754 0.12300029 0.16300678 -0.16819528 0.35081148 -0.06876631 -0.26332992 0.58025366 0.4205016 0.27263096 -0.5407948 0.08592231 0.17040892 0.1269069 0.3150109 0.15780814 -0.60426015 0.7663116 0.13760893 0.7050386 -0.39777118 0.83723676 -0.3285058 0.16793387 0.52929616 -0.08457533 0.7416936 0.17172262 -0.22704236 0.34543517 -0.460201 -0.053804047 -0.34158096 -0.092840925 -0.43365005 0.83928704 -0.08704921 -0.25411704 -0.045212433 0.38408715 0.34370735 0.20258786 0.3013742 -0.18487921 -0.16389824 -0.20383453 0.6700899 0.5375576 -0.035321806 -0.31862524 0.0002437356 -0.01732144
but -0.03199172 0.2360322 0.055343147 -0.014643236 -0.2202592 -0.6083412 0.2806126 1.0821464 -0.408472 -0.39325193 -0.31923428 -0.59632075 0.21906064 0.30511448 -0.07731503 -0.5375517 0.12250942 -0.39027855 -0.024205485 -0.85466945 0.27287227 -0.09845931 0.27693462 -0.25437427 0.019598858 0.004581784 -0.5395312 -0.24511361 -0.12608321 0.24450664 0.79636586 -0.15219758 0.14950022 -0.69468504 -0.21387474 0.59464484 0.26857546 -0.38380283 -0.16377284 -0.9268066 -0.2105757 -0.24788219 -0.15130302 0.010548298 0.6980345 0.040068693 -0.3576436 -0.34679553 0.33075538 0.22808774 0.27433705 -0.085135296 0.25046927 0.12927772 -0.32129568 0.16095671 0.24296924 0.07826721 -0.5908464 0.2113149 0.03674321 -0.2215602 0.51010466 0.04609399 -0.7311896 0.71187747 0.112213366 0.34861884 -0.44396648 0.74606806 -0.4371941 0.21330175 0.4154847 0.24343286 0.64233667 0.09294095 -0.24122575 0.17790413 -0.33899292 0.12205975 -0.07561174 -0.14825332 -0.741175 0.6686829 -0.27789035 -0.4547976 0.19491147 0.2919329 0.45815268 0.335068 0.24193089 0.14442246 -0.15764022 -0.2342453 0.69580454 0.053217832 0.03606482 -0.35503998 0.23091058 -0.027052464
with -0.4006725 0.35709357 0.24804592 0.3333078 -0.1760976 -0.6177675 0.035104547 0.9986075 -0.5069877 -0.29334015 -0.27006692 -0.5569321 -0.2500667 0.40394405 0.40509713 -0.52830994 -0.076494426 -0.35868317 -0.10470944 -0.6937856 0.37924725 0.08117876 0.283276 -0.325149 0.013946938 0.1116349 -0.488557 0.08507061 -0.4755957 0.2288517 0.40437752 -0.4356684 -0.032471746 -0.5027041 -0.27539206 0.31642997 0.2744979 -0.19576804 -0.28115064 -0.48174277 0.084160656 -0.55035305 -0.24593648 0.2523017 0.4067269 -0.18348372 -0.18326418 -0.17717256 0.5943109 0.1548717 0.23371759 -0.289963 0.26947507 -0.09021568 -0.37700775 0.45376027 0.463036 0.12263274 -0.5713462 -0.0038167336 0.22371726 0.23459783 0.053023066 -0.024347745 -0.38203892 0.68126774 0.09704306 0.5213001 -0.33751422 0.48192197 -0.34572655 0.055264927 0.4690727 -0.22626007 0.803079 0.16254076 -0.07386221 0.37531182 -0.5016884 -0.026289506 -0.29903004 -0.09554669 -0.46023896 0.80271363 -0.12860826 -0.20489587 -0.19389334 0.3770586 0.4522039 0.37134373 0.27547914 -0.010970485 -0.088060364 -0.24945082 0.83931535 0.3994663 0.18809134 -0.22673762 0.062114492 -0.06455399
have 0.0609933 0.13507043 0.1842728 0.10209016 -0.2300273 -0.49879986 0.20267467 0.9747138 -0.32375026 -0.27199337 -0.21706931 -0.7068235 0.40387622 0.31868237 -0.17963752 -0.6711788 0.026893187 -0.5195823 0.009742554 -0.42800236 0.4758092 -0.17553432 0.16491087 -0.1970115 0.14603528 -0.0018585685 -0.348837 -0.119634114 -0.038888883 0.2440788 0.89425856 -0.22906221 0.1924768 -0.81508356 -0.1456553 0.51050866 0.37995067 -0.35691214 -0.12450515 -1.037517 -0.37737817 -0.24828319 -0.30063945 0.006044223 0.6159553 0.20562163 -0.55983883 -0.22587657 0.24695332 0.15302837 0.38431183 0.050409187 0.21212934 0.23087065 -0.34332055 0.47762412 0.2995264 0.12035232 -0.9248944 0.1650081 -0.060207605 -0.015969764 0.25610334 0.01930579 -0.86629534 0.7349147 0.17022139 0.55670315 -0.281574 1.0120299 -0.5069272 0.30523837 0.50190073 0.048852436 0.65961415 0.10502984 -0.4645242 0.29380548 -0.41271746 0.12299137 -0.16949606 -0.17160249 -0.74369323 0.74886495 -0.27947527 -0.37155876 0.21946704 0.37157348 0.43729854 0.19025826 0.29649612 0.073864065 -0.38884783 -0.24592753 0.40416822 0.38577613 -0.036947604 -0.44345194 0.0133830765 -0.047609683
on -0.46882808 0.41124097 0.24691755 0.39909595 -0.16707198 -0.63966066 0.0068938658 1.0153016 -0.54678786 -0.35411704 -0.30842978 -0.50250256 -0.4059776 0.40420154 0.53241 -0.51511604 -0.08036044 -0.30821604 -0.13579394 -0.758004 0.3279319 0.08231937 0.26985687 -0.3271799 -0.01152671 0.15178545 -0.55991393 0.1700452 -0.500495 0.2763179 0.27964145 -0.43498853 -0.09152544 -0.49984965 -0.29334453 0.31712374 0.24992283 -0.21223027 -0.33038938 -0.38148275 0.21621655 -0.59432024 -0.17232952 0.245584 0.36250612 -0.27236173 -0.08196414 -0.17077965 0.6609057 0.17546485 0.22197597 -0.37313652 0.32398653 -0.16970122 -0.38805112 0.39934447 0.44094774 0.13480805 -0.5096962 0.0024813004 0.279266 0.26129442 0.066170424 0.019951804 -0.2202811 0.66804767 0.16521004 0.594741 -0.44819662 0.40205762 -0.32365364 -0.008716153 0.47518677 -0.28587267 0.8207031 0.1887943 -0.048967756 0.45363262 -0.45225254 -0.05864153 -0.3700631 -0.0994142 -0.4281364 0.84348136 -0.09459288 -0.17852832 -0.18550377 0.3666508 0.48281255 0.39420047 0.32506293 -0.060472846 -0.04035112 -0.26615357 0.969441 0.3347508 0.18016553 -0.19411229 0.068407945 -0.03281914
our -0.4880553 0.3349243 0.32090053 0.51200336 -0.22779782 -0.58688426 0.024406852 0.877336 -0.68133223 -0.2688612 -0.23573181 -0.6250959 -0.39083514 0.48445815 0.4866247 -0.37535706 -0.11269808 -0.35885882 -0.15849404 -0.76930094 0.4780619 0.0901543 0.41694567 -0.4953736 0.07036575 0.3762153 -0.5646974 0.18843843 -0.5144818 0.088919654 0.36165515 -0.5080943 0.035535816 -0.50047106 -0.22135127 0.093144365 0.39471525 -0.08550633 -0.27125365 -0.46531114 0.0392651 -0.5665828 -0.2097486 0.31571636 0.24342352 -0.38570276 -0.22736722 -0.059573904 0.7411133 0.13154773 0.0012574362 -0.24277316 0.3156063 -0.0979209 -0.3336929 0.5358463 0.5843516 0.22580151 -0.55106455 -0.04693031 0.29552254 0.2208009 0.08403627 0.0829123 -0.40817648 0.59191024 -0.140382 0.5467942 -0.28493005 0.56220955 -0.33997574 0.10444537 0.49614924 -0.30072913 0.9174638 0.072474636 0.08826116 0.26626244 -0.5075282 -0.035998456 -0.20183705 -0.16132613 -0.34468627 0.7799279 -0.15472378 -0.31141064 -0.362127 0.48211738 0.334375 0.3779801 0.18238464 -0.047591846 -0.099392556 -0.23521076 0.8709071 0.5549119 0.084672086 -0.23632076 0.14752355 -0.03694953
what -0.01315293 0.16648431 -0.045082744 -0.1527722 -0.36910897 -0.7120571 0.40509057 1.1827326 -0.5482847 -0.37462938 -0.27392864 -0.6792073 0.39594036 0.24599765 -0.38607216 -0.5371043 0.1443465 -0.41625628 -0.10057967 -0.9401632 0.26165703 -0.10181955 0.36946064 -0.34787112 0.1434986 0.026717477 -0.48781592 -0.38786393 -0.035671834 0.056649487 1.1622816 -0.07348814 0.4112639 -0.6242779 -0.08893807 0.69543684 0.43520984 -0.38087705 -0.059478443 -1.1796408 -0.37679875 -0.25108683 -0.121859945 -0.09684646 0.76409143 0.1459394 -0.50650877 -0.33723593 0.19019331 0.1822554 0.33954382 0.011758137 0.20651962 0.2859386 -0.27817136 0.23339796 0.29015896 0.054920573 -0.6875735 0.14568987 0.027175782 -0.42503706 0.70806706 0.034577366 -0.95296556 0.80589527 -0.05740848 0.20464976 -0.3826978 0.9072766 -0.5559086 0.34695616 0.41404548 0.49796185 0.67771935 0.013445806 -0.3552097 0.13975641 -0.28241032 0.2666632 0.1356938 -0.15471645 -0.84606177 0.58281285 -0.47894943 -0.5390807 0.16696897 0.31801984 0.48195124 0.31517816 0.19144042 0.111905605 -0.13968652 -0.17532876 0.65236473 -0.08483073 0.12788537 -0.40740743 0.19142967 -0.17984156
not -0.17899051 0.31593427 0.033940762 -0.017071579 -0.28208074 -0.6617509 0.22272559 1.1301525 -0.43794912 -0.34432262 -0.32993037 -0.5597524 0.011343142 0.25693393 -0.06073962 -0.5017538 0.07933282 -0.30937666 -0.07237559 -0.98166186 0.14856191 -0.054894976 0.3102434 -0.3287874 0.023177132 0.0841989 -0.62422425 -0.18496472 -0.22448435 0.120830745 0.70531154 -0.16810077 0.14684534 -0.5415574 -0.19732268 0.50480586 0.26468378 -0.30159202 -0.14614499 -0.8440523 -0.1453415 -0.3426903 -0.073329955 0.017436892 0.58528155 -0.13041553 -0.17509893 -0.3732904 0.36801603 0.21082436 0.22256479 -0.14973168 0.27656603 0.07090422 -0.2813584 0.10606942 0.28839505 0.04203867 -0.4555082 0.091318265 0.1997308 -0.2522816 0.6203367 0.10988061 -0.59878284 0.71367717 0.081724755 0.28889143 -0.45066687 0.6164951 -0.36566073 0.1213716 0.39288262 0.2505538 0.67885095 0.08060188 -0.18002817 0.15770967 -0.2825736 0.16078445 -0.044761494 -0.12041807 -0.6413971 0.59929276 -0.313991 -0.44342244 0.05772448 0.28805962 0.44437173 0.37907535 0.19487739 0.042727165 0.038350996 -0.23893872 0.8656475 -0.029724957 0.016395438 -0.23099375 0.14721389 -0.073371455
my -0.48123285 0.4093312 0.17531295 0.3091777 -0.18197216 -0.6486802 0.19627006 1.0472698 -0.6915683 -0.25927135 -0.4544713 -0.39528045 -0.3874037 0.41955572 0.41625994 -0.46519345 0.069661535 -0.3411702 -0.10883286 -1.0096741 0.3878391 0.06016289 0.32334408 -0.31039882 -0.035214927 -0.0052095503 -0.61698127 -0.018532436 -0.5812291 0.30134705 0.3670168 -0.23619373 -0.091311745 -0.5155694 -0.30107102 0.40310448 0.21959603 -0.28059798 -0.3491006 -0.43267947 0.23820847 -0.6096265 -0.18698753 0.1822445 0.51559895 -0.18694876 -0.07378195 -0.16364083 0.7076218 0.17811133 0.24232948 -0.32903185 0.31136084 -0.11315551 -0.47675556 0.22260259 0.35148168 -0.010509381 -0.56285876 0.016600335 0.253896 0.21181093 -0.022637287 -0.11852208 -0.19980298 0.60735226 0.19731595 0.45335355 -0.4294798 0.28712362 -0.32646668 0.018579362 0.37733692 -0.23209569 0.90868276 0.20267007 0.087244645 0.47626698 -0.4349601 -0.06584256 -0.21063547 -0.102180846 -0.5206467 0.83749014 -0.13434036 -0.23137549 -0.12527221 0.39235467 0.4777468 0.4610368 0.39606783 0.08197859 -0.034991305 -0.28500932 0.94276184 0.17312928 0.33346403 -0.2309132 0.24313052 0.034110107
can 0.11494953 0.09030822 0.117428064 -0.009981493 -0.18269311 -0.6504852 0.23862939 1.0168177 -0.38239464 -0.3585168 -0.17248578 -0.7609271 0.5156941 0.32302487 -0.20749642 -0.69788766 0.01894182 -0.5401342 0.042192947 -0.47477865 0.34052885 -0.09562852 0.2930515 -0.29876694 0.13916293 0.017734863 -0.4073644 -0.21333268 -0.018152447 0.23185277 1.0534333 -0.2816161 0.26180914 -0.74681497 -0.13181747 0.5850451 0.40393052 -0.3414122 0.0121268835 -1.2167047 -0.5239816 -0.26165444 -0.3878989 0.078043796 0.7163543 0.23741606 -0.6816874 -0.25541008 0.20951703 0.114252955 0.3948118 0.07146754 0.22024515 0.23578271 -0.28934705 0.47479278 0.34176436 0.17172174 -0.86493003 0.19237632 -0.19309491 -0.13029066 0.44659153 0.034516253 -1.1019201 0.83753383 0.04705436 0.4701414 -0.35654867 1.092317 -0.5975064 0.44096768 0.47386009 0.25281003 0.52365726 0.054513965 -0.49248844 0.094025396 -0.42111918 0.16066925 -0.017402008 -0.11142319 -0.69374514 0.6848876 -0.21569346 -0.5170564 0.16079015 0.43665594 0.56566375 0.22494903 0.14455637 0.106364995 -0.3438843 -0.29849696 0.42827424 0.3858264 0.11675988 -0.40744555 0.09606013 -0.16032414
t 0.48374948 0.23497008 -0.34509328 -0.07821229 -0.56264925 -0.49008676 0.61064404 0.9840885 -0.46814555 -0.30695513 -0.4622205 -0.975739 1.1515925 0.90862215 -0.72612774 -0.17672549 0.65518785 -0.83476967 0.22827959 -1.2753617 0.9796882 0.013043973 0.9175983 0.04021337 0.26332477 -0.2582207 -0.6621178 -0.39118016 0.107801825 0.3474899 1.8681306 0.13435659 0.5671072 -1.5545431 -0.49646887 1.0817004 0.59428585 -0.73149455 -0.7030547 -1.6767461 -0.9794818 0.324428 -0.24755786 -0.52338773 1.3146428 0.58628774 -1.0829759 -0.89498514 0.23684193 0.6961863 -0.10490788 0.07632538 -0.28895774 0.44251364 -0.22073242 0.06574678 0.10796278 0.12778066 -1.4569694 0.660988 0.2540026 -0.9125707 0.53020203 0.108093224 -1.7995454 0.54692906 -0.5374941 0.092817865 0.035024814 1.5131795 -0.58402437 0.13651064 0.7969888 0.7601492 0.70467293 -0.4063447 -0.5819145 0.015962204 -0.98694026 0.43363443 0.12858663 -0.4941041 -1.5737665 1.1968309 -0.8264303 -0.9527307 0.54734343 0.51222 0.32727468 0.20928104 0.0710118 0.54369015 -0.7100063 -0.5471352 0.33248127 0.1329172 -0.34323266 -1.1627234 0.8824721 0.22125708
all -0.28929335 0.225298 0.25408727 0.32827312 -0.104159385 -0.5534624 0.098897345 0.8779727 -0.59894943 -0.33958432 -0.18743186 -0.5637309 -0.14315912 0.47353724 0.35903004 -0.4219158 -0.0375754 -0.31163153 -0.18753378 -0.7436301 0.39603385 0.05089996 0.3223239 -0.41289195 0.06956601 0.25237837 -0.44435522 0.119174026 -0.37119743 0.18000136 0.42514652 -0.40431052 0.04390947 -0.56373185 -0.19591618 0.26210424 0.31845677 -0.18011016 -0.20741689 -0.5483784 -0.032359283 -0.46857893 -0.1606936 0.2759011 0.38208145 -0.20058851 -0.33243826 -0.07950321 0.5512649 0.15103142 0.097594425 -0.19683585 0.26110658 -0.0653989 -0.30002373 0.36120307 0.44183704 0.20309389 -0.58515924 0.07268978 0.17687899 0.10750882 0.18637502 0.06319256 -0.45935765 0.5694568 -0.06290323 0.5674804 -0.4080605 0.58143204 -0.33599022 0.18084249 0.4386011 -0.15383771 0.76371604 0.048755024 -0.041384995 0.2814199 -0.43934304 -0.016174713 -0.20712292 -0.14434628 -0.5064665 0.76588315 -0.14730546 -0.2889731 -0.12333436 0.3794547 0.34244472 0.3243717 0.2181065 0.023723042 -0.08623426 -0.15637477 0.75795996 0.4657037 0.05945347 -0.30262074 0.13429984 -0.055322107
be -0.017527312 0.13695592 0.16286686 0.070838 -0.25026372 -0.5877903 0.24325016 1.0791274 -0.39030564 -0.2795058 -0.20765972 -0.81920254 0.32242754 0.1570046 -0.19850458 -0.6675608 -0.07518728 -0.48101804 0.078980125 -0.619559 0.4624509 -0.15551558 0.27417293 -0.48228288 0.13108845 0.15651265 -0.37246385 -0.25996286 -0.102146246 -0.0681136 0.8657552 -0.3560923 0.32882136 -0.61111796 -0.11434229 0.38855246 0.41706467 -0.17431314 -0.15232033 -0.8799692 -0.3414113 -0.33695096 -0.2407672 0.059041686 0.44677642 0.096879445 -0.43183917 -0.2935462 0.29847646 0.13408689 0.1725686 0.03581578 0.2490496 0.33336583 -0.2933744 0.44157636 0.47163478 0.042229135 -0.7383452 0.14085844 0.06264951 -0.22640567 0.43620953 0.00455749 -0.89553237 0.78650874 -0.13396297 0.26525882 -0.24507104 0.80460274 -0.60399115 0.26999235 0.55758035 0.21763247 0.7730631 0.035075873 -0.26356435 0.16612041 -0.43169788 0.17433178 -0.041407682 -0.13355729 -0.7206859 0.61163294 -0.4545798 -0.46927366 0.066255644 0.34199166 0.4296878 0.18462433 0.13750868 0.13324612 -0.17728713 -0.11592463 0.6256048 0.34298772 -0.093318425 -0.42932212 -0.001701939 -0.2294962
about -0.17064339 0.22785102 0.1359038 0.07128772 -0.27404466 -0.7015186 0.19018878 1.0160031 -0.43587387 -0.39708194 -0.22578494 -0.65751654 0.17551641 0.32886654 0.027759923 -0.557016 0.042564977 -0.4575325 -0.019515142 -0.78434974 0.31739685 0.023064813 0.41412807 -0.33397517 0.10529352 0.07417214 -0.53583586 -0.13595204 -0.19655186 0.1891294 0.7692881 -0.20739679 0.1789555 -0.60592824 -0.23266186 0.6269896 0.3415912 -0.3807284 -0.18221238 -0.92123055 -0.16563886 -0.3586849 -0.123729445 0.036854073 0.64491427 0.03214216 -0.4198578 -0.2985164 0.34129164 0.14858241 0.2774854 -0.091071054 0.26727155 0.09227328 -0.37958995 0.32001624 0.28814408 0.14527716 -0.6510787 0.11587261 0.10725938 -0.102959886 0.44011548 0.005501622 -0.7168895 0.70877427 -0.008444608 0.38593128 -0.36496997 0.7583442 -0.45104852 0.25513798 0.45957786 0.21746477 0.7314826 0.0920946 -0.26917648 0.1773268 -0.39258474 0.17748669 -0.072320364 -0.16090481 -0.7005396 0.7101557 -0.33179396 -0.38324317 0.013939536 0.30444387 0.49997756 0.36095318 0.2123108 0.09731415 -0.20462126 -0.28790876 0.7013359 0.14871754 0.09269527 -0.35419476 0.15373208 -0.14357422
at -0.45849946 0.3339997 0.25524372 0.38156658 -0.1781631 -0.61715853 -0.0039573167 0.9847271 -0.5519932 -0.42058763 -0.21269877 -0.43756354 -0.42755324 0.46616518 0.5512542 -0.4282734 -0.044363525 -0.38378307 -0.13918772 -0.8497389 0.35842544 0.14621268 0.36610702 -0.39198107 -0.037155595 0.14662953 -0.5166317 0.1598895 -0.5221171 0.3302087 0.29061273 -0.49312955 -0.0019134461 -0.5536 -0.25875816 0.3597201 0.21609972 -0.25839671 -0.3475111 -0.40961623 0.22202346 -0.63574606 -0.18802132 0.2694855 0.44878602 -0.29376876 -0.11493244 -0.13005479 0.6467951 0.23139702 0.16825663 -0.39846987 0.31910482 -0.1543973 -0.30165955 0.3318849 0.4417837 0.19934426 -0.60156417 0.07125393 0.18941347 0.2929652 0.061001927 0.052716218 -0.29561934 0.62242466 0.08647606 0.64081585 -0.4786469 0.40050134 -0.31126142 0.01297195 0.5161109 -0.2881102 0.868022 0.11322738 -0.06192554 0.42441466 -0.4601097 -0.09090129 -0.32527024 -0.1345587 -0.48919284 0.9560874 -0.05261967 -0.20516203 -0.19424783 0.4164422 0.45053872 0.4444092 0.29348928 0.021917693 -0.039266877 -0.2775761 0.9123298 0.43774942 0.2318141 -0.23157802 0.21562254 -0.08507954
as -0.32115322 0.32863075 0.20109238 0.21972549 -0.23095272 -0.668769 0.15253687 1.08465 -0.55194145 -0.38360718 -0.35747537 -0.5025673 -0.23561656 0.36474785 0.28751162 -0.5229344 -0.02769696 -0.41423643 -0.06475449 -0.73076296 0.26749414 0.006639084 0.3144854 -0.26850057 -0.008458848 0.043476686 -0.49413443 -0.04884991 -0.39472434 0.29766795 0.549754 -0.3882371 -0.008006858 -0.5536139 -0.24022755 0.45848036 0.2198728 -0.26203635 -0.23086104 -0.59718627 -0.0011359806 -0.49731526 -0.22773172 0.19033903 0.52824664 -0.068835 -0.19145676 -0.21874101 0.4781347 0.17423524 0.28737038 -0.20619068 0.30235332 -0.10003436 -0.3468778 0.32356775 0.32353935 0.062590696 -0.5703393 0.039635427 0.080132365 0.11170927 0.1871689 0.024129752 -0.39640945 0.72099406 0.20402184 0.48278475 -0.39241964 0.5187369 -0.3382856 0.09847895 0.42220545 -0.051774796 0.79224867 0.15906735 -0.18668619 0.3612726 -0.3281388 -0.010572839 -0.21556915 -0.134959 -0.49483296 0.76291746 -0.11564769 -0.29479855 -0.022046693 0.32639682 0.50379854 0.38582125 0.30507484 0.004636687 -0.06459262 -0.3081987 0.78167826 0.2655299 0.20668337 -0.26070374 0.16130921 -0.03882182
like -0.24000354 0.29182047 0.13251862 0.10533927 -0.269822 -0.6536889 0.13371043 1.0620967 -0.442974 -0.3643374 -0.30451047 -0.5713766 -0.020113328 0.33476293 0.14198467 -0.5427202 0.006614511 -0.4287243 -0.056215897 -0.76135826 0.2983668 0.004005836 0.29247114 -0.26033595 0.004847203 0.044617455 -0.53025705 -0.10216344 -0.29066288 0.2144215 0.5780266 -0.2599127 0.08580343 -0.57568276 -0.23723777 0.48771825 0.2694703 -0.30807936 -0.22052208 -0.7312859 -0.053834062 -0.40662643 -0.17677973 0.07567538 0.5674717 -0.05467119 -0.2486131 -0.25779632 0.43348157 0.19049743 0.24694632 -0.17516646 0.291674 0.024212405 -0.32219228 0.28395423 0.34387589 0.091959365 -0.5643825 0.064418346 0.13596606 0.010993423 0.29947662 0.014520739 -0.5762858 0.7075349 0.11580854 0.44981834 -0.3958464 0.6179787 -0.3580745 0.15021802 0.47227952 0.027283495 0.7192588 0.16950512 -0.20847203 0.26617324 -0.41496605 0.08219977 -0.17968898 -0.09474279 -0.57671195 0.7646608 -0.17673373 -0.3271009 0.00044401034 0.39072862 0.48692438 0.3531298 0.24451356 0.0641708 -0.10407019 -0.29350266 0.7732562 0.23034863 0.11246866 -0.28144857 0.13596173 -0.072870374
from -0.5519874 0.4195988 0.34792113 0.50352263 -0.20382203 -0.6332147 -0.03323574 0.9820415 -0.6402086 -0.3685367 -0.28660282 -0.5144713 -0.52376276 0.5187262 0.64509547 -0.46685514 -0.12021866 -0.38295197 -0.14878318 -0.80065036 0.41635838 0.1325869 0.38427952 -0.4109633 -0.025626732 0.21690916 -0.5788957 0.2462752 -0.6361966 0.27480552 0.21467227 -0.53307253 -0.09917695 -0.5341125 -0.29644275 0.22352482 0.26563907 -0.18621606 -0.39353853 -0.34691226 0.18379375 -0.6667733 -0.2277589 0.3653805 0.35437787 -0.35897383 -0.102602944 -0.10174839 0.7881881 0.18645625 0.13724437 -0.3652652 0.32065305 -0.2510512 -0.37541977 0.4691797 0.53197837 0.19555342 -0.5798751 -0.02607978 0.2910199 0.39816076 -0.047449548 0.007981957 -0.2628528 0.63316023 0.052301884 0.6528284 -0.3931147 0.38634285 -0.30278844 -0.010736041 0.5368806 -0.41011158 0.92317325 0.17382601 0.043940246 0.4300695 -0.54838634 -0.09276071 -0.39989924 -0.11193753 -0.40220794 0.9510068 -0.05674672 -0.22054695 -0.3100193 0.4754498 0.4778325 0.44179046 0.28459454 -0.021905646 -0.0517889 -0.29485187 1.0016454 0.5294448 0.18371889 -0.2125136 0.13475415 -0.053474113
there -0.31543988 0.42026758 -0.02886252 0.06636172 -0.3030572 -0.6476987 0.29573002 1.0526671 -0.5457295 -0.33775264 -0.37339696 -0.5449695 -0.1715724 0.3106058 0.07095775 -0.34144324 0.07618519 -0.25735885 -0.19138634 -1.0768759 0.017172163 -0.1150005 0.21156237 -0.20655155 -0.04182272 0.1433193 -0.650883 -0.14071764 -0.37046987 0.0561936 0.5585349 -0.053466987 0.0795445 -0.46300468 -0.20188154 0.48603263 0.33102217 -0.2243871 -0.14716454 -0.64826447 -0.033609804 -0.34737894 -0.04685224 0.021323178 0.611061 -0.29726797 -0.047035135 -0.20910372 0.5308742 0.2203726 0.21773863 -0.14312537 0.33476937 -0.0067246063 -0.36376497 0.0003062602 0.27141082 -0.02043877 -0.26720956 -0.004735542 0.25939927 -0.14459111 0.5901431 0.046916556 -0.44004783 0.55560094 0.03848667 0.37139246 -0.46815294 0.46989304 -0.17905642 0.13695677 0.33899602 0.20845169 0.72014636 0.1522235 -0.047338665 0.16231605 -0.11289286 0.11149781 -0.038963385 -0.1696819 -0.4958145 0.43879008 -0.2127939 -0.4486985 -0.004252258 0.32858217 0.43152812 0.37429962 0.17180093 0.07515116 0.13386083 -0.19675379 0.9853578 -0.11059126 0.09632286 -0.11226353 0.1904927 -0.054743107
one -0.387292 0.30997336 0.2305973 0.34009978 -0.17186765 -0.5529301 0.12872566 0.84043926 -0.6018813 -0.31755984 -0.3034048 -0.44616374 -0.4180002 0.36309198 0.44189376 -0.33922246 -0.009716701 -0.29037067 -0.1888581 -0.80358285 0.23157364 0.058236364 0.31009188 -0.32151806 -0.040467758 0.23253232 -0.5638328 0.14366159 -0.52124906 0.18885945 0.23191 -0.32187834 -0.010870433 -0.48243982 -0.23824328 0.21260087 0.21411227 -0.20573229 -0.2658879 -0.3581393 0.13051003 -0.48695958 -0.11834716 0.2818133 0.32231548 -0.33095157 -0.1049507 -0.089374475 0.635981 0.17609267 0.095556416 -0.25879633 0.36327434 -0.13227692 -0.36147696 0.25142252 0.37103507 0.13633798 -0.44953188 0.019832723 0.25755247 0.19855967 0.13821411 0.04903425 -0.22572923 0.5064602 0.038726624 0.5380265 -0.3823791 0.33502248 -0.23962781 0.09443724 0.38001248 -0.25598556 0.7892522 0.16321646 0.022115933 0.36540216 -0.32888526 -0.060259786 -0.2631135 -0.0849469 -0.36249262 0.72371244 -0.09350277 -0.2282154 -0.10234061 0.3919092 0.31923005 0.32632113 0.23940118 -0.0002415188 -0.0036585764 -0.24729678 0.8548118 0.28944588 0.10832138 -0.20763573 0.1483859 -0.006676694
re 0.052387822 -0.040551085 0.15841281 0.02069167 -0.27710462 -0.64479387 0.086802185 1.0761645 -0.26897174 -0.32259816 -0.11761732 -0.81268585 0.38077462 0.2829125 -0.29362494 -0.7556381 -0.12934983 -0.51140696 0.037500314 -0.282922 0.5087756 -0.18760397 0.27817565 -0.34751382 0.2531184 0.14910755 -0.2715525 -0.09844357 0.14119023 0.26340565 1.1091911 -0.28771025 0.43678445 -0.6929581 0.0050819768 0.5371822 0.40723887 -0.2758588 0.03972446 -1.2841698 -0.5014603 -0.26320013 -0.31360164 0.026096037 0.49791697 0.18664743 -0.7042217 -0.24686848 0.1682295 0.107784875 0.42716354 0.09166012 0.30688718 0.24000187 -0.17570941 0.72431844 0.36756384 0.28977135 -0.8814338 0.15803072 -0.123024926 -0.19462523 0.46686015 0.13492204 -1.039155 0.93389285 0.20739813 0.57913554 -0.2838346 1.2974112 -0.590862 0.37237492 0.5247935 0.2629992 0.5693122 0.086020626 -0.6164115 0.34072128 -0.33972642 0.16045234 -0.19194582 -0.13844606 -0.670566 0.6988315 -0.32613495 -0.37865096 0.1830345 0.3524081 0.48037112 0.12269428 0.27135682 -0.15209822 -0.40759778 -0.1764078 0.30931434 0.42598933 -0.0791018 -0.44724962 -0.13937157 -0.09056166
or -0.37219715 0.37346423 0.21995911 0.28152034 -0.311952 -0.6417428 0.03128162 0.9758746 -0.53959996 -0.2980135 -0.30976197 -0.65054125 -0.2347939 0.41651472 0.33613682 -0.48299763 -0.08748685 -0.4722095 -0.012121266 -0.74141115 0.37227166 0.0669422 0.38672176 -0.32281032 0.009814588 0.18718499 -0.57932514 0.001632465 -0.42824203 0.11599089 0.42428032 -0.38101876 0.052523527 -0.47326967 -0.23564458 0.33584628 0.3122596 -0.20856534 -0.29185048 -0.6239648 -0.057177335 -0.5343657 -0.25627947 0.21315971 0.3965747 -0.24337162 -0.1912412 -0.21536225 0.59061015 0.14597803 0.103079855 -0.19525191 0.30971888 -0.028323246 -0.28419194 0.4068219 0.42471623 0.08819491 -0.56781656 -0.029655062 0.2466589 0.17307967 0.11269155 0.057920825 -0.5730919 0.6407346 -0.027840221 0.51573694 -0.2862013 0.6255276 -0.31940493 0.088075235 0.55640864 -0.13587697 0.7591389 0.19193739 -0.10057396 0.2554677 -0.4958127 0.023071228 -0.21418522 -0.13132797 -0.4213106 0.80125755 -0.16222736 -0.305123 -0.24216847 0.49813792 0.49641573 0.32241488 0.20381619 0.023871217 -0.14762163 -0.2889174 0.8496495 0.4486828 0.07256745 -0.26095212 0.12415176 -0.079545274
if 0.12499771 0.07261002 0.03522619 -0.15782157 -0.30842137 -0.73134124 0.29370123 1.1635007 -0.39407626 -0.40266788 -0.2280376 -0.825211 0.6095866 0.3113937 -0.38153765 -0.68606824 0.06484419 -0.61009467 0.06556452 -0.640117 0.41892284 -0.114656284 0.41514394 -0.37058306 0.21065259 0.06243613 -0.3552913 -0.2968014 0.0591725 0.1482803 1.3143277 -0.20680973 0.44220778 -0.7544611 -0.09509267 0.77530515 0.47500992 -0.4114795 -0.098220974 -1.3101583 -0.5701437 -0.16518143 -0.32825083 -0.07639401 0.78922975 0.2890886 -0.74722385 -0.35094807 0.10052124 0.20788468 0.39113384 0.05946759 0.18932275 0.35352296 -0.2169036 0.45143852 0.27707267 0.13363609 -0.94498485 0.1785771 -0.16083243 -0.3569255 0.6039403 0.022004822 -1.2169368 0.90241885 -0.06458869 0.3374659 -0.3271661 1.1612686 -0.654097 0.4681174 0.5522839 0.49146754 0.5966809 -0.038143385 -0.5904506 0.14968333 -0.40721074 0.30771196 -0.013833921 -0.1612155 -0.9141077 0.71413624 -0.4460362 -0.54450494 0.23578238 0.41780832 0.5086993 0.19864777 0.18353203 0.14653033 -0.30853352 -0.2573388 0.41415107 0.24689822 0.07265297 -0.5075198 0.10424021 -0.19252667
people -0.31985188 0.3354937 0.26582518 0.34373456 -0.12454137 -0.57217294 0.07822814 0.8655618 -0.57485676 -0.327434 -0.1815195 -0.6598269 -0.09799705 0.52775913 0.37192595 -0.3552633 -0.09662292 -0.3206164 -0.14258751 -0.78736085 0.46143353 0.06978586 0.33434308 -0.41430044 0.10274029 0.2870266 -0.40213466 0.10784872 -0.40929765 0.04914491 0.41466433 -0.3695307 0.023852576 -0.52577853 -0.22366878 0.26419315 0.37969908 -0.11952842 -0.24628899 -0.6063476 -0.04845033 -0.47696483 -0.18025634 0.2250811 0.31280664 -0.28215677 -0.29041407 -0.1344986 0.63705266 0.13495137 -0.017778518 -0.16566715 0.22085658 -0.0600483 -0.30018207 0.39420992 0.4365657 0.12747814 -0.602228 0.011816063 0.32010552 0.15202893 0.15483765 0.026843248 -0.5472736 0.5201845 -0.21063389 0.52353656 -0.3086728 0.6108467 -0.25577265 0.14970078 0.4990937 -0.09582861 0.7993813 0.076605886 0.021116728 0.17211877 -0.510133 -0.033419926 -0.11181665 -0.15132208 -0.4899148 0.7299702 -0.16284792 -0.29926738 -0.21651526 0.41952142 0.30549443 0.2875787 0.19861111 0.0071912007 -0.08021477 -0.17575154 0.71375406 0.54247636 -0.004344743 -0.339438 0.15386271 -0.10470622
do 0.18947472 0.026302375 -0.0053430074 -0.21389881 -0.22591238 -0.6658405 0.32501325 1.0800304 -0.30760348 -0.3454217 -0.09363125 -0.76379544 0.6335108 0.09183391 -0.45769626 -0.7127028 0.07807203 -0.509439 0.015474939 -0.5061564 0.36152676 -0.13743156 0.3452962 -0.4336003 0.17763887 0.019779254 -0.28545955 -0.3443555 0.16510577 0.080194265 1.2725807 -0.26125875 0.4865967 -0.69714713 -0.045156874 0.64726824 0.39381477 -0.35896045 0.044370145 -1.2763166 -0.49780396 -0.111705884 -0.21522991 -0.087502256 0.67345184 0.37032363 -0.71156913 -0.34584728 0.013420161 0.15852319 0.37878364 0.12977657 0.19846374 0.4278695 -0.23603542 0.4417014 0.33618492 0.16036728 -0.78239775 0.20669788 -0.14899975 -0.4445963 0.70164174 0.039318882 -1.0864037 0.9319444 -0.027629925 0.24278879 -0.34101906 1.0926923 -0.70509 0.44818726 0.46312636 0.54349 0.575115 -0.04012036 -0.5625572 0.10807025 -0.37407395 0.2634708 0.003090266 -0.11155493 -0.86136657 0.60741717 -0.50621027 -0.52615476 0.27030683 0.232876 0.42143628 0.15191746 0.1400004 0.0809938 -0.29210696 -0.1915038 0.38151336 0.13137023 0.010536078 -0.4704183 0.013273959 -0.23283496
just -0.1466842 0.22680882 0.061750736 0.034861203 -0.21719465 -0.6200059 0.194517 1.0339732 -0.39961118 -0.3540022 -0.3262259 -0.5755242 0.07236119 0.3474056 0.0067348517 -0.48921177 0.042130474 -0.360841 0.007986583 -0.83962023 0.259966 -0.06915329 0.26643556 -0.24066938 0.04058297 0.0018820604 -0.5498886 -0.18328318 -0.21590261 0.19748506 0.64435834 -0.119652286 0.08996313 -0.6117993 -0.2156336 0.50763303 0.24485391 -0.33272365 -0.20011503 -0.7924942 -0.15130594 -0.3165905 -0.2001324 0.03262053 0.6260027 -0.0518684 -0.26443624 -0.2770173 0.38679424 0.19683194 0.26460105 -0.10928778 0.2764684 0.09179555 -0.29775813 0.17171012 0.2668743 0.032948103 -0.53873503 0.14518751 0.0730464 -0.09081547 0.3997688 0.028967602 -0.64832795 0.631299 0.107273996 0.38537496 -0.3703395 0.6375918 -0.3322899 0.15133844 0.40431368 0.13590898 0.63896716 0.11029846 -0.15264969 0.16714999 -0.34124246 0.08072958 -0.089504294 -0.12568116 -0.6151973 0.63710225 -0.20681809 -0.38378182 0.09763164 0.33826312 0.47599217 0.34956533 0.2284485 0.13593672 -0.13485824 -0.21394508 0.7334613 0.14718513 0.059328645 -0.30053565 0.20330362 -0.02467661
more -0.40768683 0.36881334 0.29083598 0.3038657 -0.3386937 -0.64319336 0.15277608 0.96730196 -0.48217863 -0.40667492 -0.23915829 -0.68557686 -0.18671389 0.22028136 0.28560415 -0.41997504 -0.11303997 -0.5035732 -0.051539544 -0.76878846 0.21247064 0.14309017 0.3306068 -0.3006161 0.06486011 0.23925711 -0.5742408 0.1138585 -0.38744923 0.007370308 0.34081084 -0.354982 -0.0018386381 -0.351052 -0.27572843 0.33955073 0.36135423 -0.23765115 -0.12731792 -0.69529206 -0.028635083 -0.49226913 -0.16625042 0.13059908 0.35756096 -0.206749 -0.1439406 -0.25867814 0.5759068 0.121353894 0.06600953 -0.19512218 0.2984505 -0.1231981 -0.33064047 0.35623926 0.3819446 0.030984772 -0.49953762 -0.07274432 0.3242188 0.12782715 0.35665524 0.042340275 -0.5808418 0.6230178 -0.08648643 0.5927131 -0.20898306 0.6166347 -0.2223762 0.14839894 0.5765736 -0.023804791 0.7824328 0.2479548 -0.15992153 0.13109572 -0.40537414 0.05681272 -0.14861615 -0.10661515 -0.40501297 0.8577912 -0.20064896 -0.3111755 -0.14876145 0.3822654 0.34871998 0.22438426 0.27164698 0.027907696 -0.008878686 -0.2594295 0.9273886 0.43327743 -0.020382818 -0.25890896 -0.014599817 -0.17372747
when -0.07575841 0.19066331 0.08663878 -0.042087987 -0.21141613 -0.6779773 0.21858114 1.1181182 -0.39205357 -0.34065306 -0.2759383 -0.57514113 0.22762695 0.318134 -0.06667453 -0.65997034 0.08122967 -0.45700377 -0.02721188 -0.65439993 0.40298817 -0.023779161 0.28262573 -0.28414878 0.090167716 -0.057088424 -0.39837548 -0.13896051 -0.14577913 0.30923924 0.9288049 -0.2200715 0.22240523 -0.6827951 -0.16203105 0.6737419 0.3107025 -0.37565193 -0.15969262 -0.9300981 -0.19419777 -0.33049864 -0.24335216 -0.0027965584 0.6826111 0.19958346 -0.44543573 -0.263024 0.24230191 0.18879539 0.43715772 -0.13695471 0.2263721 0.12180599 -0.28015515 0.3514602 0.26641995 0.1116145 -0.8031056 0.14225206 -0.026270045 -0.12269397 0.32351464 -0.010422611 -0.687264 0.8395046 0.24991746 0.42981765 -0.39210358 0.8253025 -0.503631 0.22988743 0.45691854 0.16834599 0.6650078 0.09789478 -0.4088819 0.37443668 -0.36973968 0.11523776 -0.19420613 -0.11606638 -0.7516304 0.74721575 -0.27704 -0.32693002 0.15193418 0.33287704 0.51210135 0.27078086 0.3723599 0.026488962 -0.1988867 -0.2812187 0.563005 0.13342202 0.19750822 -0.33324564 0.04589513 -0.09539112
an -0.43064618 0.39457572 0.17916422 0.2302213 -0.23676625 -0.68654287 0.13973403 1.1579528 -0.5865877 -0.28996584 -0.43026978 -0.581321 -0.32006523 0.36297017 0.31262523 -0.5644052 -0.0030724516 -0.41329405 -0.055976257 -0.91000164 0.30187497 -0.004292754 0.29738298 -0.34185553 0.0053866804 0.07549467 -0.64939564 -0.03878582 -0.51645315 0.22287339 0.5132639 -0.30506954 -0.021967992 -0.55475116 -0.25321487 0.36190537 0.2668872 -0.28033718 -0.23485775 -0.63739604 0.03749832 -0.53288066 -0.25095358 0.17720081 0.5088795 -0.1836688 -0.11093021 -0.19616209 0.6233576 0.183294 0.28025275 -0.27446124 0.3869307 -0.032313094 -0.3803212 0.31882358 0.38983092 0.054668427 -0.5470425 0.025762364 0.20663336 0.11833323 0.17344326 0.003739924 -0.3598155 0.7110136 0.18765943 0.478893 -0.40255108 0.5139667 -0.3457671 0.07589557 0.48017576 -0.1473294 0.83413535 0.21238652 -0.07086878 0.389429 -0.3994379 -0.010184286 -0.25920138 -0.11731462 -0.5076977 0.788218 -0.16947404 -0.31448963 -0.11392345 0.40150768 0.5014242 0.42070648 0.36633813 0.03128747 -0.039605536 -0.28737098 0.9673211 0.24381861 0.19027801 -0.21105231 0.14334054 -0.008114349
me -0.18861806 0.24131477 0.1410039 0.054774035 -0.16396214 -0.63641787 0.20903605 1.0683495 -0.46997002 -0.33560407 -0.33221665 -0.603239 0.08718339 0.28545192 0.037144836 -0.59293294 0.034779727 -0.4153714 0.012613897 -0.794594 0.3863489 -0.035617877 0.3011104 -0.3709126 0.057000227 -0.024559341 -0.4956183 -0.18571974 -0.3055034 0.19143605 0.618234 -0.18924753 0.09902685 -0.5963483 -0.24427108 0.5094503 0.24054348 -0.32820106 -0.2444886 -0.7310607 -0.07308496 -0.39351842 -0.20887661 0.07190359 0.57554334 0.03299421 -0.29480106 -0.2900648 0.39292058 0.17631304 0.31040594 -0.13658877 0.25798893 0.10706333 -0.37815624 0.22584742 0.34704128 0.05013275 -0.64173776 0.15421315 0.080774136 -0.05372117 0.25799194 -0.100200795 -0.5644524 0.7148919 0.108082436 0.3244866 -0.37846318 0.5621218 -0.46820232 0.18093874 0.4161209 0.04750097 0.7895009 0.10268421 -0.12436889 0.2677264 -0.439627 0.07882013 -0.1397067 -0.07627784 -0.678903 0.6852874 -0.28188357 -0.36150795 0.09429505 0.33518574 0.5046 0.34218583 0.25754082 0.14530386 -0.16490851 -0.2123094 0.7317986 0.19725983 0.17263533 -0.32123002 0.17675489 -0.08537169
these -0.41901863 0.37149796 0.30741578 0.40806288 -0.19521429 -0.65185785 0.0342653 0.9219494 -0.668143 -0.31560677 -0.20424522 -0.65017617 -0.22968906 0.5424832 0.46341792 -0.35613883 -0.12416192 -0.3374326 -0.18318877 -0.8443493 0.47333977 0.08531683 0.40218335 -0.45912376 0.06491319 0.33880803 -0.47981247 0.13927394 -0.4829983 0.059385005 0.4392357 -0.44688466 0.07384475 -0.49468645 -0.22202846 0.23651677 0.42776492 -0.11210515 -0.25986204 -0.5899913 -0.0071321772 -0.53404725 -0.23186752 0.28357056 0.33757433 -0.31533965 -0.2748284 -0.08454558 0.6668531 0.15829587 -0.00859585 -0.23736583 0.22288795 -0.1104451 -0.2787977 0.4679048 0.474968 0.16919687 -0.5913545 -0.045672283 0.29933688 0.19435042 0.14973526 0.07162669 -0.49742573 0.58578205 -0.1786686 0.57279646 -0.34302172 0.6188351 -0.33053663 0.15285608 0.5275102 -0.14231114 0.850076 0.122132115 0.014260139 0.1936472 -0.53521323 -0.021797609 -0.1304851 -0.18059811 -0.43334463 0.8006042 -0.19292186 -0.3090149 -0.2569599 0.4533063 0.34463277 0.32242212 0.18981642 -0.010209579 -0.0707832 -0.1688772 0.82912284 0.57384527 0.058688343 -0.26737663 0.12638149 -0.09011526
because -0.094255544 0.24973993 0.0659068 0.024255374 -0.22993173 -0.63962317 0.23969746 1.1149529 -0.41026515 -0.37219533 -0.36668602 -0.5965403 0.13366793 0.37038827 -0.03270774 -0.527755 0.06263394 -0.38842544 -0.02928834 -0.8737415 0.27550778 -0.10946088 0.2609711 -0.20853427 0.04372206 0.0022716396 -0.5617884 -0.2143366 -0.17334169 0.23918039 0.7225526 -0.0834157 0.071071 -0.68232375 -0.2108564 0.5824437 0.2686622 -0.3753296 -0.18894345 -0.8920979 -0.19396554 -0.30860534 -0.17134535 0.0014841348 0.7146839 -0.0029237785 -0.31439623 -0.30349162 0.38970655 0.23032896 0.31714955 -0.08833281 0.284699 0.09143502 -0.34411705 0.15413748 0.24670045 0.04739281 -0.6050267 0.16933538 0.07669893 -0.14558937 0.46599022 0.029861484 -0.67366666 0.67383945 0.15549296 0.41971415 -0.42291078 0.7438339 -0.37734297 0.17750995 0.39143932 0.16832705 0.65613097 0.1262333 -0.19688246 0.18726061 -0.29813755 0.11690538 -0.07268285 -0.14853115 -0.72892475 0.6335997 -0.21881911 -0.43416268 0.16820644 0.34057721 0.47529367 0.37746617 0.2522634 0.11753452 -0.16111962 -0.2474452 0.72717446 0.11030991 0.04707034 -0.33489016 0.18927489 -0.01814597
now -0.18139404 0.25665596 0.1095882 0.085079245 -0.23376845 -0.66815144 0.22158167 1.0463508 -0.51493037 -0.3496038 -0.24439321 -0.55747586 0.023028534 0.31524408 0.056814816 -0.5187263 0.039160512 -0.37021142 -0.12108125 -0.8231443 0.32079297 -0.024433434 0.3217104 -0.35196722 0.048019633 0.09167104 -0.47234446 -0.10733616 -0.22377864 0.17217338 0.700286 -0.23165722 0.17908548 -0.5599402 -0.1694563 0.48887914 0.32935676 -0.26301312 -0.16975419 -0.79198176 -0.092302755 -0.36646393 -0.14905769 0.091064446 0.52715826 -0.052064486 -0.30883738 -0.23918599 0.3858102 0.1825414 0.2179097 -0.16392982 0.27062368 0.03709534 -0.2685906 0.2676583 0.3035089 0.11425084 -0.57116574 0.11131489 0.11928267 -0.11859303 0.41052845 0.005246146 -0.578644 0.69613236 0.074137375 0.39926243 -0.42015862 0.643973 -0.40827906 0.19265383 0.40974334 0.15954272 0.71222323 0.09936833 -0.21365997 0.24157056 -0.36289355 0.09708336 -0.102377415 -0.11183373 -0.624638 0.66173744 -0.3104897 -0.34776944 0.04850082 0.30697706 0.42628282 0.34321794 0.27256826 0.04981156 -0.06342604 -0.19940919 0.7221677 0.13351904 0.117180414 -0.28822774 0.13722526 -0.09002917
by -0.5202326 0.46574017 0.29332325 0.42335537 -0.20223054 -0.67411387 -0.00073769025 1.0611254 -0.63445777 -0.39456895 -0.31798515 -0.5266001 -0.4831347 0.493846 0.58842546 -0.45178175 -0.05611118 -0.35511228 -0.17815755 -0.9356246 0.3405357 0.105022125 0.3808415 -0.35667244 -0.0608887 0.18403897 -0.6550165 0.17299926 -0.5772416 0.27189386 0.25002572 -0.4704149 -0.083324626 -0.5486992 -0.3150279 0.3095285 0.2492778 -0.22441809 -0.3326107 -0.42828724 0.1975452 -0.64377356 -0.1452563 0.3207807 0.41904444 -0.38725337 -0.0618108 -0.17703278 0.7441627 0.22417726 0.13982894 -0.3715047 0.3420584 -0.2118436 -0.3986306 0.35827047 0.50226444 0.17133789 -0.5033049 -0.0020370176 0.34604737 0.2928193 0.108710796 0.07812104 -0.31257927 0.6713013 0.079803616 0.6548719 -0.43416834 0.42451048 -0.29108 -0.019327192 0.5134717 -0.2764918 0.894566 0.17251611 0.019413637 0.3987303 -0.46674755 -0.06655122 -0.33738545 -0.11478943 -0.44166917 0.9424821 -0.071846955 -0.24731158 -0.25981277 0.4273696 0.4764399 0.45063865 0.29650265 -0.042559113 -0.008104942 -0.32386866 1.0814197 0.4174901 0.15617159 -0.24332646 0.14998962 -0.0353001
how -0.011327832 0.17857185 0.06482941 0.009241687 -0.32095546 -0.6565748 0.29285848 1.072686 -0.4988009 -0.33459586 -0.19359636 -0.7833844 0.42106324 0.21113105 -0.2635387 -0.5935678 0.04307951 -0.4844051 -0.062231664 -0.69631034 0.39841887 -0.022308914 0.42717922 -0.44555613 0.17556433 0.13122159 -0.40570083 -0.20631084 -0.037345152 0.037618868 1.0595546 -0.31042066 0.41775513 -0.61739653 -0.12418143 0.5378659 0.44574225 -0.30384693 -0.07067822 -1.101988 -0.41401827 -0.26896882 -0.1956521 0.031719375 0.5940208 0.1667886 -0.597307 -0.32895112 0.20112251 0.13766797 0.25945082 -0.011575825 0.15909326 0.2314855 -0.23498736 0.4205753 0.4186252 0.118798465 -0.744661 0.111998454 0.0046838173 -0.33411375 0.5653267 0.036915485 -1.0147744 0.83644164 -0.15258095 0.30064294 -0.30766028 0.98984253 -0.5996962 0.31157827 0.5141833 0.38297084 0.6818502 -0.0036704487 -0.34338066 0.085772 -0.44998738 0.24185567 0.031915244 -0.10884405 -0.7333192 0.62980527 -0.47826612 -0.5450925 0.03786967 0.33484632 0.4245388 0.22258751 0.1367465 0.07719289 -0.21451941 -0.20765898 0.5966812 0.1999022 0.08192854 -0.39396563 0.07964253 -0.22189356
them -0.118598044 0.13275465 0.19865327 0.26277837 -0.16803199 -0.5564677 0.19088182 0.92621344 -0.53022707 -0.28065953 -0.19819587 -0.7061809 0.18135317 0.44739786 0.050281376 -0.4368152 -0.05837492 -0.39470255 -0.03725714 -0.61876506 0.51658535 -0.020225812 0.31779742 -0.3980345 0.1880239 0.18118516 -0.3903201 -0.10272689 -0.22354968 0.071833305 0.7402482 -0.29975724 0.20354456 -0.6183694 -0.16216333 0.3899068 0.4573306 -0.19111371 -0.18813418 -0.8638362 -0.26978946 -0.37202707 -0.3156082 0.115076944 0.50335747 0.033210937 -0.52459055 -0.15000157 0.4757191 0.12973607 0.11916318 -0.035660278 0.1779447 0.14303438 -0.30834162 0.4578643 0.38857836 0.094558544 -0.7661674 0.10774885 0.07125264 0.005741565 0.1903471 -0.019322298 -0.8256886 0.6120639 -0.17543676 0.42498785 -0.2677536 0.81081563 -0.46578488 0.2791211 0.48802316 0.026080068 0.77201563 0.0040296903 -0.14202563 0.15276663 -0.4864951 0.09692674 0.01534844 -0.18878983 -0.64353806 0.6866746 -0.29316452 -0.3974104 -0.026637198 0.4411417 0.383956 0.23011315 0.13925892 0.12893128 -0.26027146 -0.11460649 0.53900635 0.4941236 0.0065385615 -0.40447932 0.18435094 -0.11021954
had -0.33609763 0.3235733 0.24810155 0.13065965 -0.1642752 -0.58732414 0.1390611 1.1255748 -0.41327894 -0.2708017 -0.35493907 -0.51073104 -0.16716549 0.27451667 0.25263298 -0.6610329 0.019098692 -0.38937595 -0.067005344 -0.6816444 0.3979054 -0.02096172 0.13162774 -0.24071577 -0.032483555 -0.090303466 -0.4105584 -0.041095443 -0.40793172 0.35831603 0.5212513 -0.3157488 -0.040055815 -0.63153195 -0.2510183 0.4475866 0.2143258 -0.3312962 -0.22634341 -0.59278226 0.11801426 -0.4908117 -0.26351526 0.076311305 0.55555403 0.03995693 -0.13493143 -0.18119814 0.49466383 0.1458875 0.4824424 -0.28011438 0.32632294 -0.020300806 -0.44820225 0.36566666 0.28166428 -0.0032297408 -0.6197895 0.07089946 0.11321757 0.19343488 0.031697545 -0.07958859 -0.26367316 0.7693391 0.39410806 0.58919036 -0.41845453 0.54650253 -0.38064408 0.06518712 0.4668639 -0.2037159 0.81625164 0.25749457 -0.22048286 0.5233136 -0.43019187 -0.04107849 -0.365991 -0.10129015 -0.60125065 0.885495 -0.15259677 -0.18620482 0.028628469 0.2627166 0.5037391 0.34855938 0.5435223 -0.011038121 -0.09351638 -0.2769562 0.81573415 0.26573563 0.23112036 -0.2599478 -0.015718576 0.004070796
us -0.3265992 0.27924693 0.23605321 0.33717126 -0.17632408 -0.564299 0.088572636 0.9004465 -0.5586919 -0.31017724 -0.19338304 -0.6482773 -0.14531097 0.35430294 0.27070364 -0.44745785 -0.09473491 -0.34103003 -0.08949553 -0.68249285 0.40911487 0.017456131 0.36468503 -0.4831876 0.06359156 0.25704774 -0.4741118 0.056942835 -0.38954568 0.069411665 0.43442917 -0.41490403 0.12050532 -0.4795312 -0.1972922 0.18793505 0.33508673 -0.12699996 -0.2077848 -0.57463837 -0.036288135 -0.43523645 -0.1814641 0.23731373 0.2896943 -0.19753186 -0.25665036 -0.15704398 0.5744041 0.12277259 0.05091917 -0.1685639 0.29506323 -0.02192253 -0.28352484 0.39620957 0.50709516 0.1687767 -0.55338097 0.06359618 0.23406966 0.07092645 0.22278146 0.04497504 -0.5010857 0.6072491 -0.12630926 0.43934545 -0.3119287 0.57274044 -0.39197072 0.12884004 0.49200383 -0.1254175 0.82098323 0.054650273 -0.031509515 0.21333441 -0.45410377 -0.008471758 -0.16086344 -0.10150243 -0.45554075 0.6961933 -0.24739726 -0.36798915 -0.15083398 0.3863821 0.3754624 0.2857384 0.16778494 0.020851886 -0.111890666 -0.19809489 0.7755276 0.42877406 0.015606937 -0.28771555 0.12879305 -0.12792297
out -0.249528 0.27498925 0.21926391 0.24833806 -0.13625942 -0.6307234 0.14233473 1.01519 -0.51855546 -0.36498573 -0.3110172 -0.5947124 -0.14285964 0.38732877 0.34182483 -0.4577871 -0.07202661 -0.36101422 -0.05819127 -0.79541487 0.42021808 0.024439761 0.28508982 -0.38522178 0.002257269 0.20516516 -0.5300331 0.03485432 -0.41196203 0.18188404 0.45512688 -0.37885535 0.014429424 -0.5708028 -0.24446289 0.3398697 0.27943057 -0.23496132 -0.27808958 -0.5469251 -0.037311036 -0.4772312 -0.23662226 0.2050833 0.45555505 -0.17710009 -0.278369 -0.19808006 0.5802069 0.1569262 0.1638585 -0.18516627 0.31652746 -0.044936165 -0.31666592 0.30933037 0.42651105 0.10960959 -0.58295226 0.10207134 0.13781382 0.086102284 0.17560394 -0.024688601 -0.49350294 0.62732744 0.006705353 0.48007527 -0.39434463 0.545139 -0.38923988 0.12585421 0.45786518 -0.13527873 0.8278125 0.11417985 -0.009147473 0.30652308 -0.5081986 0.0227808 -0.256771 -0.09309246 -0.5063394 0.79531515 -0.19466957 -0.316596 -0.12272523 0.39677504 0.406759 0.31800273 0.24917445 0.06632508 -0.111965545 -0.24866758 0.8168427 0.3952779 0.075417854 -0.29243803 0.15091522 -0.03481521
their -0.4276751 0.3133302 0.34658247 0.49574956 -0.17384078 -0.60058385 0.016737197 0.94128305 -0.67652285 -0.2779066 -0.24254501 -0.68212163 -0.27679613 0.6083168 0.4736359 -0.38592502 -0.15609872 -0.359119 -0.08531617 -0.7568402 0.58878255 0.06862105 0.358755 -0.41860193 0.15001476 0.2909737 -0.43448365 0.13442868 -0.48630035 0.1082944 0.39160332 -0.44883186 0.013588166 -0.55937356 -0.21729058 0.19132917 0.43486777 -0.14218229 -0.29979157 -0.5949968 -0.014429356 -0.62764335 -0.30470768 0.31711838 0.3261536 -0.29590464 -0.34157115 -0.05458687 0.78222036 0.14898944 -0.008457442 -0.23021987 0.25023836 -0.09660386 -0.32832557 0.56125325 0.5069218 0.15085159 -0.71317494 -0.023290716 0.29103118 0.2843996 -0.06650757 0.016096234 -0.53592706 0.5936516 -0.15622161 0.6086891 -0.26899594 0.62762225 -0.37558737 0.14443149 0.55015546 -0.3099895 0.93174875 0.0947192 0.10180784 0.27349502 -0.5805824 -0.05110551 -0.13449828 -0.21457668 -0.4924443 0.8540424 -0.13036656 -0.29927114 -0.34303907 0.5012352 0.37336436 0.3436281 0.22118631 0.0021296253 -0.19005226 -0.14596882 0.80585253 0.69861305 0.04840082 -0.3521657 0.15862684 -0.05018779
world -0.47569248 0.37045628 0.24804303 0.5502588 -0.07604543 -0.46175194 -0.0024638833 0.7638928 -0.61778075 -0.36667544 -0.19355628 -0.39947113 -0.5534263 0.39971173 0.6455354 -0.3530336 -0.051959045 -0.21896732 -0.25478414 -0.7017724 0.27439702 0.083538495 0.3734484 -0.4486413 -0.04298067 0.2682787 -0.5275132 0.2844068 -0.5355657 0.19681518 0.025384175 -0.54646766 -0.06575545 -0.42752746 -0.25287306 0.100465566 0.2357927 -0.0831726 -0.29645333 -0.18218707 0.25882253 -0.57308346 -0.037961427 0.39006805 0.1978741 -0.41556993 -0.08149893 -0.027380157 0.7043911 0.1890487 0.007967646 -0.34589413 0.3571771 -0.28303018 -0.3132659 0.3370162 0.5196458 0.26381904 -0.48425332 0.013551062 0.32758752 0.3125392 0.042988338 0.10433612 -0.10652415 0.45450333 -0.06430552 0.6411479 -0.41732928 0.2353216 -0.22409101 -0.018452093 0.46299785 -0.33337322 0.80433947 0.03630616 0.08573939 0.3595759 -0.36571148 -0.15697213 -0.33390164 -0.14142454 -0.3272508 0.81434274 -0.055028353 -0.20295686 -0.22891393 0.36737606 0.34557605 0.37374154 0.24182282 -0.027466564 0.03609499 -0.20752235 0.9423592 0.4224472 0.035580814 -0.16940884 0.12141496 -0.09294482
time -0.40448698 0.2836663 0.2686995 0.40053034 -0.11796323 -0.4776595 0.1114012 0.8120254 -0.5914461 -0.3810008 -0.25527787 -0.419034 -0.3932223 0.38491565 0.4974773 -0.3777811 -0.035526194 -0.3083521 -0.16869606 -0.7571703 0.30818483 0.11848702 0.309091 -0.31354204 -0.047164645 0.12612149 -0.48058203 0.13369395 -0.5322432 0.21404824 0.19608895 -0.37404388 -0.038601756 -0.4821782 -0.2395505 0.2871296 0.20270975 -0.18014044 -0.31921312 -0.27230638 0.2154358 -0.48656943 -0.1126436 0.30121806 0.33725482 -0.23502223 -0.14999928 -0.06763628 0.56048214 0.22080986 0.1064337 -0.30661127 0.30620402 -0.19361337 -0.27620703 0.21657646 0.35444382 0.17205068 -0.52304775 0.08221975 0.1628479 0.26449004 0.04540225 -0.0097036315 -0.20021771 0.44577995 0.08423841 0.5600594 -0.37059405 0.29494354 -0.23906234 0.06298553 0.3730964 -0.29333186 0.8145164 0.077031136 -0.00017207715 0.37997362 -0.3205128 -0.109035596 -0.29295638 -0.06457485 -0.3880558 0.7883653 -0.120068714 -0.19233522 -0.12628886 0.3729842 0.39261967 0.33764952 0.26981387 0.028316854 -0.023728061 -0.1675752 0.78098154 0.3313447 0.12667477 -0.25127202 0.19573186 -0.049090136
were -0.22450541 0.14297697 0.28690344 0.29435122 -0.1486728 -0.6009997 -0.0026588712 0.97362155 -0.40960643 -0.29428223 -0.19179638 -0.66048795 -0.0746545 0.45006326 0.25612307 -0.5268132 -0.13899244 -0.40939742 -0.022813719 -0.5064758 0.5018148 0.0024266262 0.22472167 -0.30674314 0.08488248 0.187333 -0.3520839 0.11531712 -0.2796861 0.28286433 0.5659475 -0.37583405 0.072186366 -0.58317715 -0.1685371 0.3168936 0.3125801 -0.20486633 -0.15694216 -0.75582355 -0.10236686 -0.48864743 -0.27607185 0.22528088 0.37772 -0.081597984 -0.39352947 -0.11350774 0.4998529 0.10293552 0.26319072 -0.1317155 0.29136845 -0.027218422 -0.26847255 0.5866362 0.42952362 0.18819457 -0.679581 0.079875425 0.096991874 0.17518073 0.09411181 0.05943577 -0.59913206 0.7284959 0.11871984 0.6679101 -0.30271715 0.78859836 -0.4097461 0.1418241 0.512919 -0.14599843 0.7660079 0.1578663 -0.23314549 0.40173513 -0.45071045 -0.056035392 -0.2748453 -0.114740424 -0.50601935 0.8363504 -0.099959515 -0.24174513 -0.06477061 0.41082096 0.4229844 0.20707044 0.3458967 -0.09429854 -0.26356697 -0.16849113 0.59962934 0.5684942 0.024696195 -0.32591844 -0.007713189 -0.027146965
up -0.42259964 0.35126746 0.25047663 0.34169036 -0.1782828 -0.5925554 0.078292586 0.98910975 -0.57228136 -0.26547045 -0.32601875 -0.53169364 -0.352212 0.43205371 0.4326383 -0.493866 -0.05655675 -0.34695873 -0.09988784 -0.80907106 0.45765606 0.0648581 0.32055044 -0.39561263 0.04402917 0.15091589 -0.5448659 0.05129915 -0.5206125 0.24898365 0.38638204 -0.39573967 -0.0057936646 -0.5302947 -0.24585553 0.28729668 0.31283906 -0.16201457 -0.32703084 -0.4612368 0.0888627 -0.6047443 -0.25944874 0.25741607 0.39058852 -0.22633366 -0.1455556 -0.12434206 0.68879753 0.1740278 0.17027177 -0.31121695 0.29780647 -0.104770735 -0.38131905 0.40730214 0.4616729 0.098935336 -0.58143437 0.03323453 0.25943017 0.22239226 0.012383395 -0.024904916 -0.32645887 0.643094 0.07287745 0.52531546 -0.38258463 0.4580296 -0.36296746 0.056281924 0.48195967 -0.27297023 0.8620185 0.12845227 0.00873727 0.397592 -0.49414286 -0.030165514 -0.25697523 -0.14836025 -0.47988674 0.8248185 -0.124370255 -0.2667336 -0.19667682 0.42686236 0.44579718 0.3937488 0.3394125 0.031400323 -0.0524059 -0.2484591 0.88347024 0.4100442 0.2091058 -0.23212947 0.14405712 -0.05694369
who -0.29664728 0.36288893 0.21092755 0.29968694 -0.19830988 -0.66334087 0.11446351 1.0153469 -0.60843164 -0.34348333 -0.294599 -0.6860379 -0.10268893 0.53652173 0.30572543 -0.39264902 -0.09453555 -0.3627382 -0.13271464 -0.91440517 0.3870808 0.031217897 0.34574828 -0.34775847 0.05922104 0.23407003 -0.4865479 0.02726814 -0.3759536 0.09300627 0.5243518 -0.28698045 0.02131145 -0.5073913 -0.26299095 0.343189 0.42056954 -0.17307234 -0.24515253 -0.6877089 -0.048180584 -0.48116848 -0.18860938 0.2173492 0.46787447 -0.24485144 -0.262971 -0.18438713 0.63409954 0.16020755 0.038607974 -0.16620086 0.26220876 -0.06583137 -0.3571923 0.3564252 0.42441463 0.07036518 -0.5836101 -0.011577139 0.32631606 0.13217881 0.2359368 0.016206205 -0.57948244 0.5876621 -0.12779298 0.52931416 -0.3817599 0.6027258 -0.32627365 0.1626715 0.50195193 -0.06013799 0.8199781 0.12328738 -0.009247408 0.18737373 -0.4949612 0.027296562 -0.06346911 -0.1999358 -0.55666625 0.7450166 -0.18104184 -0.36561003 -0.15837759 0.42844555 0.39000428 0.3235461 0.17045161 0.038545873 -0.08935237 -0.17704055 0.86450005 0.4378926 0.06722869 -0.3199669 0.1522776 -0.07697318
would -0.028643971 0.22313213 0.12858659 -0.050391354 -0.17556672 -0.6168083 0.20465527 1.0755208 -0.38626152 -0.3094757 -0.18975669 -0.72337776 0.32990104 0.28753603 -0.0905525 -0.65882283 0.048434183 -0.4400539 0.08403568 -0.6574157 0.34484154 -0.024005713 0.31557605 -0.3563578 0.06940737 -0.04109288 -0.35027462 -0.20285958 -0.15185876 0.18470474 0.9073309 -0.34612876 0.22131166 -0.63721657 -0.22315662 0.4910305 0.3232269 -0.33105907 -0.08559401 -0.9650585 -0.29983953 -0.33067918 -0.29619056 0.03142305 0.63419545 0.23029493 -0.39774215 -0.34749776 0.26115537 0.15002309 0.32195252 -0.060675427 0.15575953 0.17875043 -0.28750664 0.33181435 0.30274224 0.012121485 -0.69491255 0.12265396 0.05614902 -0.13842878 0.32674065 0.0104478225 -0.8106101 0.77889615 0.087756276 0.3563074 -0.3576104 0.849301 -0.5383676 0.22690292 0.5047969 0.24229452 0.5638865 0.07178693 -0.3639691 0.19708844 -0.49777597 0.15700167 -0.076866075 -0.124824844 -0.70546514 0.7712096 -0.27032676 -0.43142512 0.057344183 0.2531555 0.4941617 0.2462586 0.2726508 0.057762947 -0.17802384 -0.25720862 0.5821218 0.30094814 0.1284914 -0.38085574 0.04002767 -0.12750256
he -0.43233004 0.35797477 0.08081855 0.2139519 -0.20429882 -0.6598255 0.19061439 1.1017855 -0.6078179 -0.3251877 -0.43564165 -0.5106841 -0.33145508 0.38194144 0.29015577 -0.44868717 0.066360205 -0.30784714 -0.0912406 -1.0383589 0.26243725 0.0051829754 0.26676628 -0.28762487 -0.022503922 0.0107531035 -0.6552764 -0.13912666 -0.5648533 0.21022666 0.42338118 -0.17684367 -0.049815822 -0.5276701 -0.3067502 0.4418861 0.19058603 -0.293262 -0.3167705 -0.48587582 0.15400526 -0.5291005 -0.13274318 0.095203005 0.5463863 -0.17079274 -0.026541026 -0.18801162 0.58592814 0.2207802 0.30625504 -0.33551377 0.33060592 -0.056283675 -0.44359562 0.102859214 0.35722676 -0.025306916 -0.43424657 0.05998954 0.2305368 0.073511615 0.19704627 -0.09450489 -0.29370126 0.61509216 0.08830151 0.3719729 -0.41138768 0.26764205 -0.3452995 0.02158315 0.3727816 -0.15920712 0.8768781 0.12231913 0.0574089 0.38243032 -0.33227864 0.0074634366 -0.180023 -0.112021126 -0.5271389 0.70761704 -0.17518261 -0.32106543 -0.10008211 0.34690896 0.51736003 0.44467428 0.31757873 0.11328616 0.012725357 -0.1936394 0.99530166 0.09263127 0.2875038 -0.21231626 0.24462678 -0.03802933
very -0.314064 0.32914904 0.19648367 0.1477482 -0.33418846 -0.69062907 0.15011035 1.0420682 -0.5159827 -0.44731396 -0.3036122 -0.60515684 -0.11294865 0.25468215 0.13968824 -0.4719153 -0.02928377 -0.46467915 -0.057894457 -0.8123509 0.17423153 -0.02834708 0.37313718 -0.3034825 -0.006941086 0.1622569 -0.588461 -0.021701533 -0.3307115 0.12684071 0.5392823 -0.2772714 0.13773851 -0.39255238 -0.18049088 0.44816124 0.3029519 -0.32912022 -0.20773119 -0.64826566 -0.08969029 -0.3870738 -0.16585246 0.17118026 0.47378913 -0.17361975 -0.20083219 -0.25480875 0.46289176 0.2232038 0.23953466 -0.17731634 0.3268984 -0.05123401 -0.320961 0.2456632 0.35143682 0.031686854 -0.48058578 0.017473517 0.13048086 -0.0056914142 0.42491132 0.031192508 -0.54298025 0.68217564 0.08344266 0.4286357 -0.3632657 0.58545536 -0.32341775 0.17013942 0.4022383 0.10956916 0.7617517 0.21508592 -0.20327035 0.2143598 -0.2890489 0.10936621 -0.1834064 -0.029520841 -0.44669968 0.682794 -0.26916233 -0.36036202 -0.008553521 0.36823112 0.4704136 0.35528585 0.256022 0.07324308 -0.049397472 -0.26180825 0.79571104 0.19926962 0.18925057 -0.24413748 0.09797354 -0.10243154
know 0.34559378 -0.0017842329 -0.052562427 -0.23314753 -0.2370471 -0.607199 0.35950777 1.0072635 -0.28037736 -0.40030518 -0.24991915 -0.67636067 0.8281483 0.30326244 -0.52139276 -0.6293588 0.19740741 -0.59012425 0.08890844 -0.57658845 0.40807128 -0.20919243 0.26188925 -0.14250287 0.16289261 -0.123912476 -0.38200995 -0.37109962 0.2355638 0.30647132 1.2673767 0.043533772 0.3210006 -0.968884 -0.091536075 0.87097216 0.3645949 -0.5238488 -0.0768756 -1.3986263 -0.6118715 -0.0013452432 -0.2791522 -0.20197618 0.9335764 0.4167623 -0.8163518 -0.37335554 -0.0071966643 0.22142039 0.42786163 0.19523092 0.16564302 0.41564032 -0.273091 0.27826738 0.10061901 0.14100872 -1.0055348 0.3677797 -0.24150947 -0.3807189 0.5753093 0.0076682107 -1.1937798 0.7701924 0.15488875 0.36071053 -0.31145763 1.1895553 -0.5995394 0.46882817 0.3951805 0.51325816 0.47276655 0.028311238 -0.64629114 0.1515549 -0.33303466 0.21438366 0.014659677 -0.14715895 -1.0082389 0.6547063 -0.38032687 -0.52439046 0.5132769 0.37281856 0.4758259 0.19661905 0.1737181 0.19983156 -0.46138558 -0.27760094 0.20499952 0.08864143 -0.0076374505 -0.57215077 0.21365345 -0.032224376
see 0.0918063 0.024355786 0.06528753 0.005751494 -0.22204296 -0.5588784 0.22480501 0.8843184 -0.36815453 -0.32444465 -0.12983677 -0.6493857 0.3931062 0.2192699 -0.22165745 -0.5445845 0.03286657 -0.51193255 -0.014769772 -0.42360988 0.3812195 -0.09019138 0.29049858 -0.33261597 0.11017102 0.10098124 -0.2744862 -0.16087598 0.04501322 0.15453933 0.97291297 -0.2670074 0.3768964 -0.6583855 -0.04344962 0.5594328 0.39388636 -0.26955813 -0.09012122 -0.97411674 -0.36116603 -0.18061617 -0.26346502 0.04657903 0.540148 0.22343914 -0.6417452 -0.18844108 0.12938268 0.14075316 0.29927543 0.04815661 0.22536601 0.28279734 -0.19377139 0.46893412 0.32586282 0.20058084 -0.7946522 0.1737206 -0.16505232 -0.18806517 0.39883205 0.029417012 -0.88763356 0.7428868 -0.021900833 0.35210153 -0.2447408 0.89786357 -0.5750555 0.3431921 0.43177882 0.2792692 0.5553228 -0.017160986 -0.4709371 0.23310868 -0.330423 0.16644555 -0.12408256 -0.104335874 -0.6633426 0.60699767 -0.37826264 -0.39603543 0.20529498 0.38157645 0.38848373 0.14864507 0.14436868 0.10706063 -0.32028154 -0.18556246 0.31320646 0.2593892 0.028974742 -0.42613295 0.085526496 -0.13600995
ve -0.15763327 0.21168078 0.21980229 0.022831336 -0.178395 -0.5657492 0.17809613 1.0210258 -0.38727522 -0.2669441 -0.25226566 -0.5335243 0.07272537 0.22684003 0.072372936 -0.6739625 0.061302938 -0.42088118 -0.08996036 -0.53143823 0.39679942 -0.053401735 0.1148634 -0.1957949 0.012753494 -0.07399957 -0.31757206 -0.03345581 -0.19227293 0.38540757 0.77504003 -0.28422308 0.10102197 -0.6768697 -0.18658458 0.517076 0.30325076 -0.36321405 -0.09602138 -0.8192452 -0.08270195 -0.35082477 -0.2522982 0.048586007 0.59440225 0.17362605 -0.3209956 -0.15706618 0.26324126 0.1552927 0.54697907 -0.1832824 0.29538718 0.036979053 -0.35218892 0.41410846 0.20335075 0.061375886 -0.74341387 0.07642391 -0.05004049 0.08654081 0.19264011 -0.040482253 -0.43425876 0.8033317 0.41577607 0.6136272 -0.4325333 0.75500196 -0.4317677 0.19757314 0.4362468 -0.041759923 0.67385364 0.23813783 -0.4579884 0.5037351 -0.35123667 0.019368162 -0.31350413 -0.12381873 -0.6529046 0.86784685 -0.1964317 -0.18838826 0.14886653 0.22103934 0.43777943 0.29279932 0.5236966 -0.008746041 -0.17209964 -0.29932436 0.5889284 0.21419328 0.18329433 -0.29875752 -0.020084528 -0.009793149
think 0.18496098 0.06432592 -0.016882543 -0.27273798 -0.24563393 -0.61526144 0.36893147 1.0259142 -0.3170368 -0.3324405 -0.2747846 -0.56382257 0.5685502 0.1285415 -0.39743787 -0.59962946 0.15298343 -0.4638309 -0.0011670921 -0.62895066 0.28734037 -0.12795863 0.21857555 -0.21246868 0.113246344 -0.11616025 -0.35809237 -0.33713427 0.13101175 0.22409625 1.1074663 -0.0393217 0.28492016 -0.71887857 -0.097506724 0.734601 0.32177925 -0.41498518 -0.021592304 -1.1463436 -0.416159 -0.11349057 -0.18838842 -0.15996636 0.7948491 0.3434611 -0.5801186 -0.3363661 0.011626891 0.17302252 0.42690364 0.09324539 0.20154756 0.30983922 -0.27612674 0.20620324 0.12737313 0.053327303 -0.76103383 0.2573923 -0.14959311 -0.39791316 0.55111724 -0.0017317825 -0.86936945 0.78666204 0.2140121 0.2731228 -0.35672837 0.9341981 -0.5133474 0.37394848 0.374433 0.5114963 0.48710284 0.07794891 -0.5347381 0.20623241 -0.25747702 0.17392276 0.0171652 -0.09817758 -0.85865253 0.58560354 -0.3754418 -0.42670947 0.38309318 0.22268026 0.43307024 0.21364085 0.27126765 0.13843079 -0.24150562 -0.26070374 0.37692237 -0.043783233 0.08071665 -0.4148732 0.12348893 -0.08383793
your -0.23565608 0.27234852 0.18718249 0.24998483 -0.26862824 -0.6396877 0.14225763 0.98414415 -0.61251384 -0.29741815 -0.2891758 -0.628571 -0.016695067 0.4014595 0.16749467 -0.48156992 -0.022640506 -0.47733542 0.002301249 -0.7516335 0.41882718 0.034644097 0.40672833 -0.3907742 0.11150905 0.15971231 -0.5182569 -0.08098004 -0.33830932 0.12162687 0.6346001 -0.3203717 0.19726004 -0.5651215 -0.18447301 0.42448547 0.39267606 -0.281644 -0.2557421 -0.749113 -0.15651684 -0.46359232 -0.28517228 0.18144053 0.49181396 -0.09428498 -0.41495287 -0.17743641 0.49713814 0.15943368 0.16060382 -0.114050336 0.2175281 0.09811477 -0.3025344 0.43414557 0.4125978 0.13939983 -0.6935745 0.034535155 0.10543435 0.07099448 0.16728286 -0.049094725 -0.7354239 0.6623176 -0.094780445 0.4095471 -0.2943491 0.68607914 -0.4542039 0.24250096 0.5089562 0.002419238 0.8008284 0.07354178 -0.13021578 0.25668436 -0.51323426 0.08576487 -0.12562826 -0.10896806 -0.55558676 0.736206 -0.26435935 -0.37482026 -0.14127578 0.51897705 0.49033913 0.30368537 0.1690469 0.09893381 -0.23889986 -0.23961873 0.70377976 0.39591667 0.16666962 -0.35274813 0.17118579 -0.11751429
could -0.086543016 0.21336773 0.15475968 -0.0016283188 -0.19383337 -0.64262754 0.18614718 1.106239 -0.3716845 -0.31133386 -0.22685468 -0.67639035 0.17151986 0.27478456 -0.00388504 -0.62796956 0.024916997 -0.4410254 0.02756077 -0.64080465 0.32811165 -0.0019029749 0.2915588 -0.3244111 0.04294346 -0.0036051022 -0.38826054 -0.12835738 -0.17651713 0.25078914 0.8594175 -0.34861976 0.19942822 -0.61721677 -0.21557947 0.49995792 0.31937334 -0.3314181 -0.07415016 -0.94401747 -0.24526034 -0.33957544 -0.29202163 0.06669286 0.61273456 0.16089928 -0.3622685 -0.31101036 0.3047417 0.13124716 0.3645025 -0.08843707 0.2290827 0.11064315 -0.29784125 0.3619962 0.31903785 0.08340753 -0.6512051 0.12363155 0.033101615 -0.095699854 0.32903135 0.049753085 -0.72641665 0.8218083 0.1589065 0.43469325 -0.36499757 0.8258103 -0.50300187 0.20749807 0.46920645 0.17898926 0.60359025 0.11247491 -0.3624537 0.25150222 -0.44452438 0.101949714 -0.13380595 -0.10619088 -0.635556 0.78222674 -0.2079821 -0.36811554 0.07520782 0.28104904 0.47550708 0.26207882 0.3338868 0.003241102 -0.14391798 -0.29035023 0.64759827 0.27970102 0.12609227 -0.3419303 0.04975952 -0.10709571
has -0.54745775 0.47531626 0.2851884 0.32720345 -0.18110065 -0.60143644 0.04388713 1.0760844 -0.51570106 -0.36084256 -0.3595061 -0.49352866 -0.48800445 0.36616945 0.5129534 -0.53882504 -6.198299e-05 -0.35749358 -0.10081342 -0.9006686 0.2902884 0.040266484 0.24985851 -0.28724897 -0.08096057 0.083585754 -0.63234687 0.1373046 -0.6189101 0.29099393 0.19243808 -0.39377347 -0.14334983 -0.53719544 -0.33046952 0.28047302 0.19541232 -0.29398784 -0.32052106 -0.35530752 0.21833181 -0.5854541 -0.1432007 0.26572868 0.4183577 -0.32722077 0.034141194 -0.18176985 0.6957565 0.2119046 0.26953217 -0.3686887 0.38396823 -0.1871721 -0.43262154 0.27448434 0.436118 0.07358767 -0.42168403 -0.002290708 0.2803761 0.28907517 0.10993783 -0.006973546 -0.18563202 0.66847754 0.232836 0.61444443 -0.47304922 0.35099187 -0.26668593 -0.03439891 0.47136223 -0.3370896 0.89298546 0.23830272 -0.0042843497 0.42002526 -0.45576704 -0.06852003 -0.41235587 -0.052670583 -0.41719246 0.91466016 -0.05019429 -0.20425196 -0.17933732 0.3322979 0.49958888 0.46923974 0.3929647 -0.006243153 0.017392322 -0.3232164 1.067835 0.34603336 0.17972493 -0.19625059 0.14589687 -0.00680968
m 0.045457806 0.17752656 0.03903447 -0.3135225 -0.194938 -0.7384243 0.36063534 1.1344984 -0.3379372 -0.33904558 -0.40615004 -0.34979495 0.33270624 0.074904785 -0.12319741 -0.76519257 0.20836784 -0.36540866 0.043892544 -0.7190848 0.31582433 -0.08432391 0.13231423 -0.1436981 0.0034652585 -0.3523014 -0.36538106 -0.3796729 0.02617522 0.43433526 0.92994463 -0.01255061 0.07085214 -0.6751774 -0.18815562 0.8582754 0.2066578 -0.4810911 -0.112802565 -0.95528173 -0.049563825 -0.27479175 -0.1896213 -0.19623289 0.8376946 0.377986 -0.37553856 -0.4149748 0.121398844 0.1398388 0.5863307 -0.11912292 0.23933202 0.1557506 -0.42645764 0.09964892 -0.032176446 -0.11486119 -0.72809875 0.27861372 -0.069017105 -0.18118796 0.26095778 -0.15399897 -0.42609882 0.9005619 0.6276116 0.291264 -0.49108553 0.65594137 -0.52281046 0.22531189 0.31747016 0.38635513 0.5558652 0.3256828 -0.48560643 0.49796385 -0.30622217 0.03364554 -0.11332882 -0.07908691 -0.90492964 0.74324846 -0.30390683 -0.1732507 0.42471087 0.10088152 0.56157076 0.33324105 0.56417894 0.10453203 -0.12616698 -0.34309977 0.56860214 -0.20828323 0.33701336 -0.35021082 0.06252309 -0.027482055
get -0.0011504277 0.10678895 0.08930538 0.03000644 -0.18871228 -0.5630898 0.20158291 0.94531965 -0.3541236 -0.29305342 -0.19991812 -0.60865545 0.2844071 0.2540657 -0.14174794 -0.55694073 0.018637978 -0.43307278 -0.0025376244 -0.54637605 0.42610008 -0.058119584 0.28020957 -0.3070131 0.12163228 0.034746736 -0.34435987 -0.17465237 -0.0797503 0.16485602 0.8217719 -0.24102774 0.25252822 -0.64048785 -0.14643532 0.52113324 0.33345464 -0.26527464 -0.16421649 -0.8521884 -0.26445127 -0.26158693 -0.24731597 0.01850364 0.56359756 0.15414734 -0.47133425 -0.26429203 0.25996733 0.17430176 0.268404 -0.02459019 0.18226944 0.20897822 -0.24558002 0.37716982 0.32943293 0.10291918 -0.733293 0.15403925 -0.042350147 -0.15448578 0.31329373 -0.03725736 -0.7742119 0.7145828 0.025130115 0.31926557 -0.26393965 0.7850931 -0.51426536 0.24121785 0.43677327 0.1904007 0.6469686 0.04639327 -0.3067342 0.22919989 -0.4118175 0.12834655 -0.092296824 -0.12183055 -0.6803946 0.63912725 -0.33874738 -0.37407845 0.106514364 0.34556985 0.4051477 0.22178568 0.19998196 0.1007231 -0.24405663 -0.175051 0.4864679 0.24944133 0.053500466 -0.37458643 0.079781316 -0.13345502
going -0.019350134 0.18666226 0.035279706 -0.07931044 -0.20285928 -0.61907184 0.26048866 1.0485433 -0.3483814 -0.2921242 -0.1101282 -0.6419153 0.38162896 0.18522722 -0.31224084 -0.5953675 -0.012096698 -0.30946597 -0.021437217 -0.669766 0.3220314 -0.1293299 0.28889537 -0.53362876 0.20242825 0.103034824 -0.3190092 -0.26989415 -0.019172767 -0.0806402 0.88660884 -0.2361696 0.35190374 -0.45803818 -0.0413755 0.52202433 0.3945746 -0.22106583 -0.05274695 -0.9554352 -0.32805604 -0.2676678 -0.21384072 -0.08196266 0.5392346 0.12425373 -0.35493594 -0.35075453 0.17372012 0.1275585 0.18477531 0.024555977 0.124771714 0.28022063 -0.1711271 0.29855156 0.30262068 0.03964779 -0.58356434 0.08502715 0.06914027 -0.37242955 0.5522262 -0.028967572 -0.79001206 0.7823506 -0.07615713 0.10808404 -0.27673918 0.80438995 -0.49408054 0.252819 0.4316103 0.44831568 0.5888617 -0.0225006 -0.27759373 0.050157167 -0.32565287 0.25781772 0.0652061 -0.17725492 -0.71517867 0.3205145 -0.4648477 -0.42154458 0.08227811 0.20179486 0.40889516 0.18837017 0.12829399 0.0073082144 -0.0704071 -0.07928769 0.5040822 0.0384531 0.047854323 -0.30411682 -0.059892457 -0.21675678
into -0.49553844 0.42992812 0.29667813 0.41110688 -0.20952758 -0.6741111 0.021852646 1.0927172 -0.6148272 -0.37269858 -0.3549246 -0.5858526 -0.39933535 0.4974008 0.55940133 -0.52244514 -0.07474171 -0.41114983 -0.108060814 -0.8661896 0.386006 0.098617315 0.37326136 -0.3501119 -0.040855024 0.16571698 -0.63309205 0.12846197 -0.5694498 0.29211795 0.3481783 -0.5020629 -0.075552955 -0.58713186 -0.33999038 0.30966118 0.29252613 -0.2310808 -0.3634224 -0.4844702 0.118097946 -0.62530494 -0.24634789 0.30045184 0.4445459 -0.277048 -0.17547904 -0.18397258 0.74200237 0.21449438 0.16477536 -0.33888388 0.34689206 -0.18839367 -0.3987874 0.4221824 0.5218976 0.15142421 -0.5891643 0.026901029 0.25249 0.28695768 0.050570212 0.013330028 -0.40265524 0.6911587 0.073013134 0.6371207 -0.43416774 0.49257013 -0.35065284 0.018568411 0.53842634 -0.30075127 0.91160154 0.1546121 0.006886827 0.41105047 -0.55734235 -0.035876587 -0.34268337 -0.12342894 -0.46921954 0.9792499 -0.09807487 -0.29349014 -0.24426866 0.47885323 0.52332366 0.41701266 0.28166842 0.032195922 -0.06983493 -0.31228426 1.038916 0.48653415 0.17853564 -0.2584254 0.18180536 -0.04159794
where -0.2749166 0.30344346 0.19006005 0.24933441 -0.23311554 -0.6358298 0.14775704 1.0246315 -0.5403743 -0.3276273 -0.25222394 -0.6158502 -0.07551089 0.39200544 0.21212184 -0.50700617 -0.0372153 -0.40885293 -0.108383745 -0.7419274 0.3778127 -0.0033935185 0.3281014 -0.36108512 0.078634836 0.17624335 -0.47574955 -0.0037955178 -0.30504763 0.19508654 0.62322015 -0.35845256 0.12737702 -0.5762383 -0.20375495 0.37980738 0.3792149 -0.2185095 -0.19958465 -0.74197423 -0.090944685 -0.47114718 -0.22148308 0.16248801 0.471796 -0.110135354 -0.3246648 -0.17247936 0.50760967 0.16478883 0.1838452 -0.15935607 0.2728484 0.010529952 -0.3046731 0.4308421 0.4149047 0.12738551 -0.68159074 0.04435847 0.17297553 0.04516201 0.23580492 0.03705862 -0.57578164 0.69477856 0.038304783 0.5163965 -0.35449508 0.7126614 -0.4003738 0.17474326 0.49822506 -0.046942394 0.7671988 0.13094363 -0.18328725 0.30658644 -0.4360453 0.05017681 -0.16478287 -0.14907537 -0.56271744 0.75611365 -0.23400024 -0.33516303 -0.09869793 0.43249422 0.4438505 0.30666676 0.27365115 0.020977905 -0.1278147 -0.23396356 0.7770968 0.36570436 0.09471947 -0.3107468 0.07486333 -0.078757584
really 0.016255908 0.19354391 0.025250517 -0.08906185 -0.21419716 -0.6386373 0.29897237 1.0551845 -0.37753463 -0.36102197 -0.29541403 -0.6191635 0.33081183 0.30008876 -0.21421151 -0.52958804 0.07987263 -0.3789905 -0.011125453 -0.8191858 0.2600218 -0.10470415 0.2650156 -0.2408676 0.08152653 -0.012836225 -0.49755952 -0.28634217 -0.09076579 0.18265586 0.883197 -0.08938275 0.18492939 -0.67443866 -0.17124158 0.63606447 0.3034946 -0.34937215 -0.10772008 -1.0111876 -0.29461843 -0.22487552 -0.19295405 -0.070220046 0.73196733 0.10684474 -0.38836867 -0.3435451 0.27518305 0.18338619 0.31842774 -0.023139533 0.22107594 0.20554107 -0.32535586 0.17810078 0.21181192 0.039877973 -0.61986387 0.17442511 0.024755212 -0.2699711 0.5385841 0.030082202 -0.8029356 0.701552 0.09368495 0.2882993 -0.38764462 0.805687 -0.43656844 0.2793999 0.40155688 0.30748966 0.615967 0.0972088 -0.28946307 0.10176458 -0.32042453 0.16398458 0.020992612 -0.13641322 -0.76462126 0.5864198 -0.3152674 -0.47014448 0.2000693 0.30448484 0.4630775 0.3210611 0.18618242 0.1556651 -0.16118194 -0.20805673 0.6334405 0.050080974 0.058124147 -0.36932087 0.19845873 -0.08631391
first -0.40783653 0.3605365 0.20070894 0.3416768 -0.1597949 -0.5931257 0.10968444 0.9441914 -0.5770635 -0.3678352 -0.30815122 -0.44210374 -0.3499785 0.3836068 0.42529017 -0.43396768 0.017019328 -0.32401788 -0.14790921 -0.85815257 0.298012 0.093412206 0.3332427 -0.34571442 -0.064186506 0.103012964 -0.53769594 0.07553154 -0.47236508 0.27584925 0.32833922 -0.36936083 -0.013247497 -0.51693046 -0.27903983 0.36398154 0.20013167 -0.2678793 -0.30274314 -0.40733942 0.19259034 -0.5550545 -0.108420126 0.2358626 0.42763087 -0.22675802 -0.11275463 -0.14798093 0.5967502 0.20278908 0.20275588 -0.3223533 0.3402999 -0.15855391 -0.36096242 0.23762019 0.4019296 0.13031514 -0.56068903 0.06851204 0.22669232 0.19613926 0.12496942 0.016494457 -0.22946264 0.5801897 0.11938481 0.54968745 -0.4618353 0.34485602 -0.3064744 0.021939345 0.39872995 -0.18509711 0.85386217 0.13736671 -0.026765827 0.3945093 -0.34968358 -0.063816294 -0.28533405 -0.12487522 -0.49601626 0.84076613 -0.12104614 -0.26552588 -0.083699256 0.33630154 0.4267604 0.4069444 0.32172987 0.037346844 -0.031263866 -0.25928855 0.90747046 0.2565609 0.17100647 -0.24291709 0.19767989 -0.046497192
been -0.36324412 0.36200106 0.22172724 0.244682 -0.14074583 -0.5690655 0.14367796 1.0790172 -0.64974314 -0.2749881 -0.3879852 -0.67180413 -0.23659743 0.4063272 0.31351295 -0.4418695 -0.034292217 -0.29823154 -0.043089483 -0.90760523 0.28989118 -0.0019085546 0.31409612 -0.3058918 0.03518165 0.118249334 -0.45141834 -0.08463892 -0.47624984 0.12304662 0.4965011 -0.26797923 -0.036235653 -0.37547475 -0.23813938 0.31165043 0.34853306 -0.25732312 -0.24048203 -0.5863447 0.04534062 -0.45831615 -0.21442181 0.13721591 0.4314833 -0.14580013 -0.10803505 -0.09801837 0.5896103 0.15708937 0.20972724 -0.33326513 0.32741252 -0.07222116 -0.34507674 0.21556053 0.28692243 -0.049729683 -0.42450276 -0.06783557 0.22105673 0.105183594 0.21659836 -0.041785017 -0.43753058 0.51365536 0.0114871785 0.48021024 -0.45218092 0.47223344 -0.26851594 0.1005427 0.4153379 -0.1408279 0.7425528 0.1814974 -0.02964969 0.28293037 -0.34979022 0.041444022 -0.090125486 -0.19371228 -0.51361036 0.7709038 -0.19942276 -0.33000392 -0.13694678 0.26979223 0.39111134 0.38805842 0.3559538 0.12445249 -0.017351616 -0.09498208 0.8914505 0.28942657 0.17450856 -0.29184356 0.17012481 -0.045371685
then -0.23688579 0.23644313 0.15157904 0.11866007 -0.18062748 -0.6051562 0.16766204 1.0230118 -0.4500953 -0.29656157 -0.26364422 -0.5741675 -0.015933545 0.33672997 0.13745297 -0.5342429 0.009131158 -0.3590364 -0.03454382 -0.7506352 0.36768267 0.002028932 0.27301103 -0.30863246 0.036462396 0.08669948 -0.47176117 -0.08832659 -0.2947762 0.21512029 0.62931484 -0.30632907 0.07947998 -0.58108836 -0.20807603 0.4217426 0.29513264 -0.26455578 -0.19198422 -0.7018148 -0.098887816 -0.41417503 -0.23342326 0.11162117 0.5231154 -0.0056786686 -0.27247888 -0.21379037 0.44353846 0.18262215 0.27859467 -0.17569695 0.26164627 0.03396654 -0.3240451 0.3045754 0.36533886 0.083934866 -0.5881386 0.09002807 0.09607598 -0.013234017 0.25423658 -0.018964527 -0.5483508 0.7045394 0.08977009 0.4429645 -0.38127533 0.60538715 -0.41619474 0.16308028 0.44975623 0.007851169 0.7329583 0.098242156 -0.17789689 0.31902388 -0.41133827 0.076006815 -0.16971523 -0.10827754 -0.5685466 0.7346201 -0.19995019 -0.33665016 -0.029135875 0.3240033 0.43693858 0.3200426 0.29458785 0.055117223 -0.09567452 -0.21333167 0.742751 0.27694973 0.16079016 -0.27937475 0.12236953 -0.08522143
don 0.5960127 -0.18564665 0.077983774 -0.025096359 -0.041683335 -0.56319785 0.5113718 1.0170115 -0.45354608 -0.46036673 -0.34162885 -0.79900354 1.2604251 0.7091455 -0.54330444 -0.62766284 0.012248508 -0.47056842 0.19185834 -0.7526669 0.5007518 -0.4011201 4.6003883e-05 0.034929916 0.3066615 -0.16469267 -0.46300453 -0.76209325 0.25745982 0.28108332 1.1172552 0.33077738 -0.005994579 -1.1732605 -0.055432886 1.048217 0.5463699 -0.47180656 -0.027613169 -1.743233 -0.84248096 -0.19609348 -0.46657953 -0.081265114 1.3148099 0.29309773 -1.0305592 -0.15249692 0.28611365 0.052629896 0.43742836 0.480415 0.097065665 0.5144403 -0.5585567 0.13092905 0.015204539 -0.039195146 -1.2422704 0.43243867 -0.5316617 -0.040452432 0.54506546 -0.11282572 -1.7519287 0.53475696 -0.07461504 0.55777055 -0.47068357 1.3867211 -0.60878533 0.8376287 0.28706574 0.36828643 0.5836113 0.13369413 -0.3231594 -0.3512429 -0.28027675 0.27269322 0.6198805 -0.30520904 -1.1936632 0.40841308 -0.13923286 -0.73763746 0.55033356 0.6502555 0.7476764 0.41040918 -0.117239036 0.63424456 -0.7922844 0.0045394492 0.15381505 0.4226377 -0.036585942 -0.73074 0.5668122 -0.074220076
years -0.604851 0.43313572 0.2853127 0.319563 -0.16498157 -0.6003287 0.11688346 0.90522295 -0.5282308 -0.24768075 -0.3734712 -0.54927725 -0.47629854 0.47567835 0.4827218 -0.46513885 -0.013961945 -0.36193827 -0.14384821 -0.91948116 0.40580088 0.17976521 0.23393017 -0.29940504 -0.05960074 0.037609234 -0.58028746 0.064761266 -0.70919573 0.25770107 0.28159937 -0.26823553 -0.21988411 -0.5223102 -0.37282318 0.31941834 0.14650051 -0.22999369 -0.31043485 -0.40426385 0.2351562 -0.53645235 -0.14954244 0.23380223 0.37375715 -0.33227846 -0.06450265 -0.057681967 0.72664994 0.13569133 0.3134659 -0.44078448 0.3504168 -0.14168434 -0.43316704 0.31679177 0.32830888 0.06200524 -0.5423804 -0.01826188 0.22674999 0.36046514 -0.02499086 -0.13328202 -0.18051937 0.46242422 0.07938263 0.5874761 -0.31575897 0.266654 -0.15479964 -0.007397133 0.41249797 -0.38043335 0.89342594 0.30540514 0.040663503 0.49027327 -0.45936543 -0.14319137 -0.37101898 -0.072156176 -0.38641328 0.81337696 -0.10631797 -0.19611675 -0.1869786 0.36530706 0.45027173 0.41794974 0.44430313 0.11814903 -0.10479833 -0.32134974 0.9049926 0.33893177 0.32097584 -0.15320615 0.23460494 0.07788996
no -0.2778005 0.3791569 0.10274105 0.060845997 -0.21091935 -0.7240814 0.2102416 1.1663234 -0.5617029 -0.28163338 -0.5036304 -0.6228585 -0.22541524 0.34023386 0.22157653 -0.5585744 0.11497605 -0.3325769 -0.049800012 -1.035526 0.1860108 -0.116785064 0.20106716 -0.19959794 -0.09435138 0.052460767 -0.64547294 -0.10081577 -0.43898603 0.25690463 0.58152175 -0.15462689 -0.024548927 -0.5940508 -0.25980976 0.41584137 0.26247022 -0.36414903 -0.19358322 -0.6246114 0.009503465 -0.48352572 -0.1699313 0.05260255 0.61235505 -0.18851806 -0.073505186 -0.32096016 0.5886712 0.19043267 0.31444773 -0.2564489 0.38826516 0.030681962 -0.43228674 0.10960647 0.2731013 -0.05156937 -0.36373463 0.09341831 0.21853453 -0.0620896 0.36019745 0.05188373 -0.4349356 0.7673716 0.28425053 0.4453669 -0.5251965 0.5251763 -0.33109376 0.07385927 0.4509445 0.00090334355 0.7535388 0.25346005 -0.11655674 0.3938489 -0.26236564 0.044635303 -0.21984118 -0.14588322 -0.5241306 0.72502756 -0.14166397 -0.34215483 0.0056055347 0.32796207 0.52632743 0.3696545 0.38476503 0.055250116 0.048830785 -0.2735511 1.0006195 0.010322051 0.1882977 -0.22142796 0.1572602 0.009311312
work -0.13738951 0.20987299 0.16159907 0.1894031 -0.14479819 -0.5495066 0.16121973 0.919096 -0.46680826 -0.30262285 -0.22518267 -0.5606401 0.07442983 0.31831193 0.10702783 -0.49619853 -0.040651463 -0.3562277 -0.054951847 -0.6609168 0.38194835 -0.014951691 0.26706406 -0.34287658 0.08603524 0.1055617 -0.3933095 -0.0687333 -0.23326392 0.1269587 0.5848047 -0.26838017 0.1318391 -0.5410262 -0.17176925 0.4057759 0.31017068 -0.22417141 -0.18094788 -0.70647496 -0.11025345 -0.3655273 -0.20150474 0.100094736 0.46371323 -0.02757255 -0.35216054 -0.19071375 0.4300864 0.1341279 0.17503056 -0.10448928 0.22952844 0.060411192 -0.28761774 0.3292409 0.34638843 0.10653067 -0.6114887 0.0958649 0.10332811 0.012041121 0.23739198 -0.016168833 -0.5814078 0.63876945 0.003131498 0.39789075 -0.3175789 0.6277611 -0.41271725 0.18267511 0.4186822 0.017280985 0.70670444 0.0557988 -0.12952349 0.20764029 -0.392327 0.06394422 -0.08009715 -0.12722872 -0.5810203 0.65054834 -0.22933334 -0.3308904 -0.0019943996 0.33355737 0.41834116 0.26118115 0.19780083 0.08862915 -0.16753328 -0.16201726 0.6343001 0.30266666 0.054872245 -0.32918718 0.12386551 -0.10541895
will -0.23399621 0.30120054 0.21133637 0.16703898 -0.21430202 -0.67769253 0.1140405 1.1166856 -0.45734885 -0.33254063 -0.2633634 -0.7222699 -0.004502266 0.36898974 0.16200198 -0.63075626 -0.026266778 -0.441787 0.014615654 -0.7442226 0.35128757 0.0067609013 0.33508635 -0.39025855 0.035571773 0.10615319 -0.5371462 -0.0147110615 -0.32522878 0.22232434 0.6847991 -0.40150607 0.11864948 -0.6059558 -0.26583058 0.38332075 0.3454886 -0.28370944 -0.15864795 -0.819005 -0.15571132 -0.46612477 -0.28071365 0.18558173 0.5429893 -0.030314995 -0.28554362 -0.28423905 0.5065028 0.15417099 0.25527662 -0.18560965 0.28751197 0.0047927876 -0.33664638 0.41807225 0.45780694 0.10797685 -0.6600508 0.09192637 0.17634776 0.010909219 0.28029338 0.049166802 -0.6603801 0.79019547 0.10359241 0.4976752 -0.36961982 0.76473594 -0.47689608 0.12427843 0.5272543 0.0129047185 0.7252283 0.110380486 -0.20029204 0.26428494 -0.51568586 0.051368512 -0.21009439 -0.103530765 -0.5837011 0.8530836 -0.17468643 -0.3967515 -0.065744035 0.38390332 0.52165246 0.32099563 0.28411448 -0.0049700644 -0.10665446 -0.30375716 0.8276887 0.38230017 0.10359618 -0.32685956 0.07302495 -0.102371395
those -0.28678265 0.29714847 0.2389798 0.27067557 -0.18221894 -0.6168213 0.10700787 0.96716183 -0.5640308 -0.3330241 -0.22555175 -0.66171324 -0.07554968 0.46793264 0.28199312 -0.43019077 -0.049750756 -0.3967953 -0.11062604 -0.81263316 0.43143168 0.022716053 0.33818772 -0.39780223 0.06503107 0.25108436 -0.46957824 0.033114627 -0.37901852 0.12230627 0.5377885 -0.3447948 0.0725178 -0.57373106 -0.22255266 0.33301684 0.36480236 -0.19818938 -0.21888451 -0.6891205 -0.08899976 -0.4610546 -0.21043496 0.2164911 0.43423718 -0.19621883 -0.32944933 -0.15621011 0.57875013 0.16017035 0.07264894 -0.16249436 0.26449695 0.010371947 -0.32991707 0.4108948 0.4294605 0.14609125 -0.6223793 0.033881284 0.2234331 0.08932581 0.21923263 0.035501156 -0.5942179 0.62267333 -0.109262876 0.5188998 -0.34084353 0.6490027 -0.35502067 0.19695064 0.49462247 -0.07880622 0.80822664 0.101370566 -0.06090585 0.20984139 -0.4980876 0.032321334 -0.12534036 -0.1497961 -0.51105213 0.7676901 -0.19518097 -0.34660757 -0.1235809 0.4300405 0.38563564 0.31660762 0.19745104 0.019719236 -0.13025655 -0.20342657 0.76015186 0.46601197 0.06855626 -0.32924226 0.13701849 -0.07239658
